{"Weights": [[0.05412106118398376, 0.06457011474066525, -0.05485829180354378, 0.03980397954668402, 0.11083378996459635, 0.054114529104244975, -0.1779524558156387, -0.15565810001676578, -0.2266093693207033, 0.1411893358089149, 0.04150295941701713, -0.280360704655323, -0.37856051867732143, 0.26293598643892857, -0.09270852799083534, -0.29710640019736323, -0.28946611047071724, 0.33220474492412666, -0.1862823458636974, 0.22416830905247054, -0.08062306763361474, 0.23315176925871012, 0.023425198904211058, -0.25192221278733834, 0.11009196947794464, 0.2252128805680943, 0.09161849601723734, 0.12771191708074198, -0.07687107942495691, 0.20584494664098107, -0.2447545502127674, -0.19585688211537614, 0.1575753348700147, -0.009143473002951194, 0.22012497702484998, 0.016805888764500013, 0.10194416113425774, -0.17867159664693016, -0.2625153645953145, 0.09281745655767998], [0.02288942523796314, -0.11127593392370816, 0.3247997104201585, -0.022612755180958705, -0.029146508695876792, -0.13244813829291244, 0.06719661391495854, -0.09671630592609361, -0.3414689461441188, -0.032264608164734754, 0.027589659391163063, 0.2671498075069385, -0.03469321694246696, 0.025515885277602558, -0.1395885852604468, 0.2725382968228438, -0.04035053044758658, -0.23500659879964111, -0.17465503171931723, 0.13525013948188724, 0.11335251961294569, 0.06503293835878744, 0.096179974873022, -0.06002116849665895, 0.03314303579067154, -0.06496080263992735, 0.011176651437721362, -0.19683282887718387, 0.19947022388316704, 0.15673260318533752, 0.08452137798598124, -0.17941537065990978, -0.3103711598935069, -0.039846910824724496, -0.12949697551277928, -0.24883550718757902, 0.11632935054679575, 0.042704658370741416, 0.10511769006450064, 0.03969285692452912], [0.34809858998371235, 0.27379316570383455, -0.2762857466923084, 0.24658952585102747, 0.11091192119819315, 0.13150613256338167, -0.19430327103873238, -0.2912704113565272, -0.16659531986050832, -0.16149931079178417, -0.2690180311583436, 0.11868846249752718, 0.003410152593056412, -0.22674544629291032, -0.13782015149212692, 0.19362304286644128, 0.3914807090226584, -0.18142091828434687, -0.11130548728729635, -0.18943607149705502, -0.13482259545793263, -0.193050931236886, 0.142594766339414, 0.02091386283874373, 0.015863390434993442, -0.14206084006074954, -0.036868381381398585, -0.0027976870279944463, -0.06449627462939064, 0.03318568985064292, 0.35889699916442286, -0.27972735469764975, -0.05788678731596486, -0.19109978190307725, 0.2285509205087431, 0.38836648783041844, 0.14899354310908253, 0.2668548583076776, -0.12521379222780246, 0.27563101854694], [0.31073434946257217, -0.24958294643383247, -0.3495796705532686, 0.15890817772661747, -0.2753848677284962, -0.26152004179170035, 0.0594968456199218, 0.3477209337472611, -0.22087660444237348, -0.057026788704180036, 0.14373125131264272, 0.37313558791544854, -0.09798480110541599, -0.2757158934698961, 0.36198123509347807, -0.01695622824257329, 0.30309040719265073, 0.15667224378409597, 0.12743468709876077, 0.16275888453493914, -0.3055836211251327, 0.3376116300648235, -0.05256064050545761, 0.013440274341345208, -0.10712653748117502, -0.15442582655557394, -0.15870540611904801, 0.16151664473993238, -0.030489047084679786, -0.22866557955585512, 0.20850901824832713, 0.47760788360158407, -0.15084882813190223, 0.06452601332817143, 0.1854424049924352, 0.19815532340010317, -0.0747727236725496, 0.035507907122266244, -0.20107285380402593, -0.232975307793281], [0.19723702213822455, 0.3551069588287808, 0.29251059345184, 0.03529390454336571, 0.2529995714599056, -0.13569144417042941, -0.09502757679662156, -0.21289692572120575, -0.20987135549209845, -0.17976397686888831, -0.08280515723726642, -0.1735164637929175, 0.1095580961560823, -0.015678854661247986, 0.06696963525260612, -0.10784403194361507, -0.26366921251263165, -0.17957365411131676, -0.02835777013586129, -0.03969151335362345, -0.13363495694560634, -0.2763557668913027, -0.007789933286427643, 0.06813856865426993, 0.1662730765287005, 0.06995074294238397, 0.2387298824156829, 0.338024175330726, 0.02404120897574699, 0.07658777406894053, 0.33861037381849995, -0.20122880028533402, -0.20121658326554948, 0.3101741882401845, -0.058626894789193494, -0.22757355021792303, 0.02390440474092208, 0.33307711102577986, 0.11548330869790685, 0.20324009596367368], [-0.28613330112911406, -0.4059513819068687, -0.13878399549863288, -0.27274481858802985, -0.16721517044760545, 0.26332226128777486, 0.3156945726344603, -0.04010996965700884, 0.2896238846064576, 0.16076537666416926, -0.05034092641509142, 0.30182047703983067, -0.13488824232200017, -0.09928017482809888, -0.044178298871321395, -0.02210210576167726, -0.260275608805082, -0.01727672614901583, -0.09940784391787928, -0.09469397214913211, -0.08188083493038906, 0.25053205869598927, -0.07937038785766555, 0.17303742214059034, 0.16071133885728506, -0.20903049655004022, -0.05684399458742943, 0.38914392358902367, 0.11554142255273067, -0.311140282017489, 0.28266457593525834, -0.04147910650296225, 0.10630484906697335, -0.047715161088234474, 0.02588749498175724, -0.23396178409388504, 0.1533051733170359, 0.229474422723459, 0.2912028127577097, -0.11924106934741013], [-0.2460791165314742, 0.21180521453868037, -0.26565010111419257, -0.007914614580536269, -0.005116544703106459, 0.13371128305855723, 0.06941485440955673, 0.31822910371156166, 0.05726074732412975, -0.2723938668817589, -0.02458931651772322, 0.16164728055455302, 0.3430719574298243, 0.024304780942159265, -0.19901823915192463, -0.03809825436670244, -0.09763023937406899, 0.3803863662497808, 0.09007604283934426, 0.10732878465093627, 0.1336644387315052, -0.098496045504912, -0.1039132325108364, -0.06197265868275861, 0.19567449882362523, 0.09476353633322884, -0.08367286989319851, -0.14009810999377356, 0.2685712873304874, 0.025718206519828757, -0.13946344368593885, 0.39585359800957787, -0.09984342330583161, -0.004076771882296501, 0.032575533350542786, -0.09132885182339946, -0.10100780336015103, -0.2170955312485861, 0.07008657509642707, -0.015524125820214674], [-0.0016615343833936158, -0.18735651145917742, 0.10437999087457361, -0.232504987737869, -0.04747181407975094, -0.12530709087124856, -0.025853517955908414, 0.1468136078874646, 0.06704248084230646, -0.02811216907251607, 0.17032006513390838, 0.22684510901616922, 0.31027116592872733, 0.007680692708584829, 0.09889507050476326, -0.18647368356395072, -0.11737068807567334, 0.10253952674521447, -0.0974451443968569, -0.06142131684086613, -0.12905723590558968, 0.3476558665413184, 0.08958975805286513, 0.010890353418655045, -0.048477914933225695, 0.15345183431929307, 0.21404539888638752, -0.3891539865258182, -0.0717872140505214, -0.175909567041509, 0.2660382576865971, -0.058301690641832264, 0.03397167734445088, -0.18142250378848565, -0.05643638081613799, -0.16289486881151116, -0.40448233986132337, -0.13186004649996177, 0.00888705320470531, 0.22853128941494016], [0.1250574086460199, 0.16246952515093022, -0.2325620565016748, 0.20122180604880485, -0.1757878594887328, 0.0731774285842396, -0.03716063899517818, -0.19992162676462338, 0.04475798345966978, 0.03750831115238202, -0.12378330356977783, 0.2405398826357523, -0.08584536181497805, 0.09921698774429055, -0.008577909193099212, 0.25534001005825585, -0.08086926847960436, 0.283279246829387, 0.127494037956726, -0.09648883755489142, 0.34980410744659063, -0.4258333391933975, -0.07224565173205041, -0.05672966436843526, -0.1605386524373327, 0.07873961494953596, -0.0020854235867483013, -0.3899010225150969, -0.2605263535748173, 0.16827722270465664, 0.28176621628131215, -0.06966355323145144, 0.05860550634779256, 0.13666837707859933, -0.21083181497050593, 0.2760685610299712, 0.17452970749371174, 0.3693333862651897, 0.224732241960713, -0.15665314090632032], [-0.24890383699714688, -0.13001223717826516, 0.1549096875646196, 0.05991043626444062, 0.2607472683671337, -0.17678977723670886, 0.06127736615753274, -0.04110638856001913, -0.28889778357302565, -0.010431804465895544, 0.09408335539902507, 0.2414574226280469, -0.13929585803698605, 0.045138017660528065, 0.19239869538517146, -0.3439552950192412, 0.2973397715785514, 0.3158893676771493, 0.10719403081295524, -0.07335528712512335, 0.18982597750023103, -0.337536816181545, 0.07384283403303549, 0.3021649747274905, -0.20648256556719768, 0.11855149239323412, -0.251741345874038, 0.06994755706593883, 0.17737653346144786, -0.11674914147475714, 0.34992672465661834, -0.16256456368519065, 0.28879174573722305, 0.014562948151849898, 0.18794271309822927, -0.1291759569756092, 0.010204449387237547, -0.17856691433899358, -0.03721913039814347, -0.24723871380464268]], "Bias": -0.026639945035973348}