{"Weights": [[-0.19416070465665153, 0.028349776758813557, 0.041483370278908874, -0.018229868642251405, -0.2363970086295625, 0.12396005386658275, 0.08421439880830195, 0.01659312788677781, -0.01009307965900469, -0.14590550347371067, 0.024010512754528104, 0.15250023148851377, -0.09143502938027688, 0.021250977602235797, 0.17670412876214758, -0.015649661342482128, 0.0789904412812512, 0.1832045942584703, 0.07942313065996755, -0.18657630351866294, -0.08111706649214068, 0.2629073032039953, -0.07697758300999424], [0.09843984753439478, 0.1783494354420605, 0.03949325582643101, -0.10404373327578978, 0.10780101096543437, 0.12205565864835229, -0.05818603361565422, -0.08336823342398252, 0.07270258428816312, -0.028511811480727102, 0.17965585221407074, 0.002696936240319726, 0.2480398402455624, -0.04573005753726304, 0.05125706758394451, -0.09595933714929213, 0.13014987228948902, 0.07344051637777257, -0.09221592943054195, 0.1324098084874335, 0.04736000371307418, -0.2689831031636016, 0.1388015292624057], [-0.20573259051857803, -0.13350958792411857, 0.08227971612591307, -0.16284273180278744, 0.033891375887153546, -0.23390613425402926, -0.21322365081528946, -0.08211074537419347, 0.054987432803673277, 0.03232846460064668, 0.17257065766695465, -0.11853294014812776, -0.1823738165502832, 0.04023582966831018, 0.02026222432612238, 0.076710046710803, -0.055954137746709535, -0.024011924461185875, -0.012158256772618484, -0.14359548643040126, -0.07973394356388118, 0.09298908560063157, -0.014799784088671613], [-0.16179060390440206, -0.07944668370037553, 0.15917556342916017, 0.04774368968155873, 0.04791623761355832, 0.1611301108289948, -3.3654215523103914e-05, -0.03025441452825976, -0.10564757648527823, 0.05522261953357823, 0.1577659404011207, 0.07068351138480967, -0.0005524059419589191, 0.07782131441455044, 0.0016309065577594564, 0.1811966962457125, -0.1479399283064425, 0.09052928387861227, -0.08964443995077812, 0.18017180863825383, 0.1353428002836157, 0.07112118413071865, 0.1899226913714895], [-0.011282600893455483, -0.17828429455918515, -0.0001564539150224317, 0.10629424692860788, 0.06323600074303412, 0.02306570222055664, 0.013148292828064246, 0.1124214749642132, -0.09896575496215426, -0.17135544865589952, -0.12213217748312695, -0.0350789676899507, -0.09273606562517449, 0.19209682844223183, 0.13743734383556336, -0.02625263390158641, -0.09212024769220191, -0.0005547216787977043, -0.15581327641301335, 0.07720383748229762, -0.10821906762949872, -0.05091409049307854, -0.18981555910829678], [0.10029634922945191, -0.11458445850743293, -0.10910113346183134, -0.020493837008058305, -0.12008601257987743, 0.2036384585303467, 0.15785111590885498, -0.18938928711790476, -0.1805447270930579, -0.06424850687325483, -0.06521148233991761, -0.16453796073273433, 0.03239109298899176, 0.23770908414015132, 0.11023940510121623, -0.1436020441518598, -0.16831732610360595, -0.20495143254707157, 0.04614250738404321, 0.0900289683378967, -0.061110976721542226, -0.2510661656538875, 0.11833862811665295], [-0.1372577151337083, 0.009195607811627562, -0.14761852242909573, -0.18690034286509924, -0.21312648764340889, -0.13472298906747493, -0.20464401367563811, -0.19561964211909944, -0.09754451710458083, -0.11556037188821755, 0.010226422517312208, -0.13170744686994085, -0.04142778374778037, -0.16669787985703208, -0.03888539796103991, -0.05419564030577961, 0.06541774894163342, -0.20451921730556952, 0.12197328612791815, -0.049291714304074245, -0.18044006376533145, 0.009873194570606598, 0.07261561381842635], [-0.1182316468621759, -0.15094362068560155, 0.17917879056586947, 0.11787435040081683, -0.0829752822648216, 0.14564229994180589, -0.24092603023369671, -0.022932582508586066, -0.0651832999719513, 0.19001298020990603, 0.1458948678315966, -0.13527433881104794, 0.09890739461805644, 0.10739762467441474, -0.1892234176549042, 0.0081040258030938, 0.0009989006224972966, -0.02763815058947423, -0.14604446387289755, -0.17411362305057448, 0.08000497561718985, -0.04102997922899754, -0.1404527766672417], [-0.01617498792235412, 0.21044790948052547, -0.09718189830553797, -0.003387045873072449, 0.20124736153723569, 0.012568090519277965, -0.11973372915856027, -0.025361103057212453, 0.20729050945713234, -0.05232366329495224, 0.07832574852719301, -0.07939746584897713, 0.10797469639660962, 0.20070398832055428, -0.006474795270675018, -0.16211481811156542, 0.09987280868480104, -0.17723624573380722, -0.06473217846146838, 0.017408746769894644, -0.033635561737693505, 0.1402615128111059, 0.21327887241482318], [-0.19714079350540703, -0.08901628040777096, 0.10687010937019022, -0.030461786848102117, 0.131715423012652, -0.008268251857756637, 0.1357404256063507, -0.1407414741517843, 0.18239108625961584, 0.06458900191778097, -0.2238041582009906, -0.0902276164480076, -0.04629284160614903, -0.23954353718717628, -0.08353470510374113, 0.07015868953305568, -0.1297719593434895, -0.1844770069747766, -0.16573360446147944, 0.07317177262910315, -0.1741226743078875, 0.04548807994758518, 0.17823501626306304], [-0.04217606941251924, 0.17334726498890346, -0.1281481961357682, 0.18625023736851365, 0.07707344864859347, -0.18861161249927136, -0.05162283259289762, -0.16743824384341544, 0.12324423256950023, 0.16119790152555327, 0.10983056610108906, 0.09277301118932836, 0.0883557373040702, 0.09301393696175501, 0.17370410084123594, 0.0377893750541684, 0.014878630512352277, -0.045769702885386204, -0.09862240565596143, -0.0211822595554365, 0.10355881585676252, -0.23606998886487518, -0.011976263725349085], [-0.07017331946040166, -0.1019300350904166, -0.0026902144215758973, -0.09983829481110018, -0.159787948044828, 0.15736779787603872, 0.17330936567812655, -0.16666595450559063, -0.00814249517560463, 0.1316182813967979, 0.0357498299302684, 0.08873214137576631, 0.14193924607199734, 0.011287343528917953, -0.009113931557389286, -0.14492590228251004, -0.16668778700718287, -0.02765235359555272, 0.19178483838298718, 0.058231297655985566, 0.18447186940169386, 0.22978032171344978, 0.09176444729996212], [0.14200880691926046, -0.038391659951166626, 0.02785187645326911, -0.08269316109080416, 0.20232288152086364, 0.03289040622233246, 0.03973483619451906, -0.18147532111202086, -0.13816979458943277, 0.10246361098556934, 0.08686256170217396, -0.03034470062709586, 0.13488156058882084, 0.15299087452526475, -0.1683195695350297, 0.12159262351939214, 0.028171980513609106, -0.06935086503412839, -0.08395569858564944, 0.06486615355876392, 0.11715508284004104, 0.13826951854710362, 0.18178041701588507], [0.08802323311746696, -0.07308273486440331, -0.1126567555136323, 0.030698607644728603, 0.05066337972262712, -0.1757133523621053, -0.23343186209749947, 0.17254937354798416, 0.01456106699286777, 0.05227988491435288, 0.053719352628108494, -0.0883402988749792, -0.20967508295421178, -0.020598933319247704, -0.11596860150483372, -0.18511728768528068, 0.19738722426026514, 0.16513101653519743, -0.07464761724434675, 0.19977813617318646, -0.20465508403532215, 0.07716080786409962, 0.03656891017323943], [-0.028956670104566536, -0.018201812029340382, -0.04394271601754656, 0.1178626449929687, -0.17593185812875972, 0.09234798173261531, 0.20782223017599122, 0.02475623363172143, 0.1053882070843849, -0.20154205977310247, 0.23769180390928074, 0.0936424504905261, 0.2012374074924577, 0.12277563957738583, 0.06769422195136691, 0.16066070408247773, -0.17960423194923694, -0.09297611897450521, -0.019462083132990228, 0.02282978527518133, -0.10558108082822538, -0.0648022427337168, -0.09169091331880923], [-0.2283112127283446, -0.06505915239377888, -0.12538722185093543, 0.07993749005474883, -0.044091050651368716, 0.06652622570727193, 0.09895118915058954, -0.006694628882076892, -0.09166634772981389, 0.06424682321178446, -0.21750778403912663, -0.1776012921778888, 0.0899498977260586, -0.2293290366368034, -0.19508835420178852, -0.21556674447513008, -0.1655863289298404, -0.0031410079482532757, -0.0754347707151106, 0.2268155303994692, -0.24058991937888446, 0.01653590047457136, -0.13374095164284291], [-0.15377463384251852, -0.20062092470324336, -0.1253394850442293, -0.1695835705806914, 0.028751964588529626, 0.03113999025369305, 0.10948062518234583, -0.17252957382819492, -0.046676775032226496, -0.1838853948769858, -0.17060060502225635, 0.10305968282984194, -0.06613051361301615, 0.10267596033749082, 0.17490191689378665, -0.16214096848970136, 0.029657690487405478, -0.07363645983237205, 0.08168367096625663, 0.13978552861566806, -0.0749176025163506, -0.09338848148202866, 0.11213291478159057], [0.19155972874620247, 0.1653858371368734, 0.200768811566661, -0.16628392931165023, 0.13329072938890751, -0.16959500085071666, -0.13847115459656245, -0.12925241871896087, -0.20386692872604087, 0.04908387876398309, -0.028857372917851218, 0.10886866522391712, -0.05039714693363447, 0.1783173573342242, 0.01982371535316913, -0.0613804141150775, 0.14608652463311456, -0.055541911927301915, -0.15864856124453694, -0.14164556635645992, -0.11139343848496452, -0.20246633548066545, 0.15876056815640943], [-0.019335021380442872, 0.07252909707271689, -0.1348291744449134, 0.08295499256648921, -0.19549667311309907, -0.13632982936001667, 0.04323446364985054, 0.20710379789222613, 0.026634076367235617, -0.10942130572289731, -0.19297831332203322, 0.18646875761416112, 0.10991584245782068, -0.1985563396228027, 0.11836077714034594, -0.013066338030041723, -0.0996003763937085, -0.13575476643499682, 0.19898568750885093, -0.07148566184520819, 0.0009864633302809499, 0.20428665786690078, 0.10230024358133089], [-0.20982761679480744, -0.31136742575321386, 0.1915065680439675, 0.07825367680467571, -0.10788842058360082, -0.0721278246312929, -0.18829359992852862, 0.06873505833492359, -0.13692970947993907, 0.28390248880825814, -0.28516992309834793, 0.1882244732227931, 0.07908360487520343, -0.3161442657579843, -0.2563588094010113, 0.1418693574541982, 0.11697854306525385, -0.17096128419657797, -0.15165583000274016, 0.21846553166357424, -0.25721611799817123, 0.257780523277017, -0.048273348579560026], [-0.09352036037228796, -0.18032126170729249, 0.0644735270571904, -0.16520036123153925, -0.044545790757264586, -0.13416802409300202, -0.18725961633481758, -0.12130582375415463, -0.08123103881829236, 0.2188348281889398, 0.14415386168675498, 0.14540120334391235, -0.07341844377957145, -0.0036352485593966976, -0.07629279508315076, -0.04534142339626438, -0.19011669831263203, 0.0020378165568313575, 0.17006537993110102, 0.023122747774242385, -0.2095214429565526, -0.12449093890302684, -0.19638691648886963], [0.14288711736598364, 0.029207695872276767, 0.08168379346170385, 0.1640512718651537, 0.16504702174195235, 0.09723227502136124, -0.1414769330000936, 0.02123234578172015, 0.014418412300161079, -0.05533773584583103, -0.017340263424305356, 0.14546958306903368, 0.15826591865051126, 0.1773846367274452, 0.11607709186406279, 0.20287962884526672, 0.030682147631653188, -0.19960913992356888, 0.03895433378617535, 0.06343810945162703, 0.091881246711375, -0.10310427091461756, 0.18851639954002267], [0.18872981736718003, -0.2235369195196203, -0.058552918754811036, 0.010892359333473614, 0.04599471784355486, -0.18232526860875184, -0.22613378654218863, 0.16236006985668885, 0.07235382091912117, 0.042333710806402275, -0.0368378089000625, 0.16204293688791407, 0.04359484521478124, 0.04496407114933833, -0.15771681612039057, -0.04828175601609848, -0.003302375453178554, -0.0637178354410098, -0.11097590592182269, -0.10484120247266109, 0.16934302965628656, 0.18847880579550721, -0.12077119421678018]], "Bias": -0.11073093137854222}