{"Weights": [[0.3205511061445605, 0.5093110258467872, 0.3686991719257799, 0.050362655637391, 0.577537371472282, -0.21683885527005814, 0.42654449254630716, 0.4953184589002125, 0.2653370743793054, -0.7292845838733578, 0.3395432745056012, 0.6998349438418343, 0.2530508910966082, -0.25163018949515165, 0.5164269804271533, -0.7101340567581109, -0.6842161040992402, -0.38346882368741053, -0.6464725791816539, 0.310417555083792, 0.5070284134740911, 0.5698075736687765, 0.3941012609071148], [0.004218918288194574, 0.4089255943365483, 0.34147286009108563, -0.35094706959700467, -0.4783787599840734, -0.2334998817890155, -0.26867414763477, -0.027459307460343866, 0.1546277545979209, -0.32719719838862926, -0.3736685742510461, 0.021335438737690483, -0.24405246271014264, -0.012709437187253852, 0.39283976950295435, -0.1910551058076672, -0.33454857623086126, 0.005185027129944337, -0.3055243775378088, 0.030424030974148277, 0.20046966361966034, 0.5055585097662457, -0.0324106995375124], [0.2797788096073582, 0.2691030024835368, -0.3626142117954932, -0.6330235295165082, -0.618442555473226, 0.4137784098651433, 0.43842080008140866, -0.4484841155483577, -0.05484176818805608, 0.3333455464072696, -0.33632986750596794, -0.1541016940963204, -0.1232855774862625, -0.46468206027178127, -0.5409271894555234, -0.6393499471561439, -0.27385668281744446, 0.013204414282940473, 0.6135865981155327, -0.23695645361449874, -0.6036567160029637, -0.30955796648933664, -0.15694568988925464], [-0.22883007986720064, 0.30332772682133835, 0.38962801933616664, -0.6499348582752342, -0.324676378484848, 0.45903324962666847, -0.12788350384800246, 0.4100947972737153, 0.39636336582612375, -0.18848681482506818, 0.07964165824203406, 0.5080988930445091, 0.15848885875618185, 0.22517974661307072, -0.11154043402182687, 0.18892269704832337, 0.3446550106636158, -0.27393727313144944, -0.4167113275148199, -0.2328435126905652, 0.5906025696751268, -0.23216408603065444, -0.4348815071758982], [-0.5146459690604732, -0.44809555219549896, 0.6005680681083543, -0.7462905718392451, -0.18388849641966967, 0.03740638811862792, -0.379070834752725, 0.009289305950307893, -0.46121774536083254, 0.4432957128875352, -0.1427747825469175, 0.09773411560404745, -0.6342200829737507, 0.4839024276021844, 0.4473899499529673, 0.6390580712226752, 0.4573693595976999, 0.18001766688612042, 0.17230545143548728, 0.08287941758740282, -0.07015944937607174, 0.3843447455262878, -0.4525739723965658], [-0.6027284830645793, 0.32125943814107594, 0.6160251214104404, 0.630274192346852, -0.3695831694520063, -0.07185314760327394, -0.023860749331310535, -0.603454781827527, -0.13793111095233598, 0.3027931225725111, 0.5648555815558064, -0.15989635552366072, -0.5227397759655332, 0.6578520811359505, -0.3205296354925306, 0.3362074936562751, 0.12800349623219612, -0.016295025433182838, -0.24054913949172005, -0.54611446977328, -0.3557350091791348, 0.0629783716877322, -0.528547907313553], [-0.15763681802152077, 0.2569432218675953, 0.3561146215819682, -0.3179396592419609, 0.23680320784546782, -0.4431523663769513, -0.2422272419318884, 0.6548509883645697, 0.18740758578084907, 0.6212376994449897, -0.44588887697628593, 0.03631609851201702, 0.682801914379995, -0.2826726369781634, -0.22278994647079178, -0.4892158048676217, -0.3211090975574243, -0.279401815297516, -0.4694193543863382, -0.42603222694325843, 0.06180297012286384, -0.18066867247480484, 0.42722242098443014], [0.4926818512627761, 0.09148476218148077, 0.3228898036067885, -0.2696401581085903, 0.04679935077952523, 0.07279937092769558, 0.41168064711506414, 0.6067274223060135, 0.4572463712696588, -0.5262018553148121, 0.367812185215188, 0.7020046147430041, 0.1542451760799868, 0.5174966646371579, -0.044700039711175046, -0.5347069462691743, -0.35890376195854323, 0.1777338640142104, 0.10695830382293874, -0.6039882045062868, -0.20329999624602335, 0.25790345359207384, 0.0449353330888164], [0.023226883941740266, -0.10286676884412588, 0.19479654039801633, 0.5474614729037572, -0.6377536171215746, -0.033465692749526106, 0.023317948648348828, -0.6818134560094593, 0.6834529457865174, 0.6078589256491508, 0.12225403769013755, 0.37360084454050935, 0.419033885612104, 0.5936399188827423, 0.04722066938380865, 0.018624819522221836, -0.3628519899447207, 0.5092731438535455, -0.2858662092863102, 0.2664170700402108, -0.42486146795654894, -0.6690275967232412, -0.12356430874100215], [-0.4655531697746376, 0.5464337865544693, 0.41645146904688657, -0.6802281375991929, 0.22458908269807085, 0.29243246683091745, -0.4700762961271444, 0.40725931939883175, -0.13931744103786242, -0.4395572447762656, -0.5151569240497457, -0.01157274326944026, -0.13741881479001, 0.28748033926629757, -0.378767793876227, -0.24681726822466551, -0.5996857043896301, -0.3255917325135983, -0.3104413611105248, -0.43876703030435693, 0.5874428936966354, -0.48966380695159256, -0.18149438836034743], [0.5097078247751146, 0.07344016953534052, -0.3088370410105363, 0.41889220557863877, -0.49297184898175617, 0.5229321004331539, 0.11679826171065137, 0.2510248741691207, 0.2981858433344801, 0.26052598348057343, -0.06313074900804218, 0.42528224337241527, 0.3032497434289658, 0.5807545312197665, 0.4373318416759244, -0.6655280674817837, 0.5136612077391648, -0.39158302760213276, -0.6121380649030373, 0.25596974160256925, 0.5154184969500754, 0.47816258313857596, 0.47560673670532766], [0.14499723438352022, -0.5020199551731659, -0.12473926462285274, -0.19412305854228307, 0.49559715680149924, 0.06368690008867825, -0.4615270153732283, 0.493920756266079, -0.030729933859123915, 0.41005585434693526, -0.5101034286672639, -0.5689735687802079, -0.015367140722585652, -0.3376605448304933, -0.14943081402912414, -0.6080982865566255, 0.3306885700170998, 0.3570239105496888, -0.7000778419919965, 0.5255352575427765, -0.2504047362039216, 0.16803095995109563, 0.20655889925514945], [0.2243413287066268, -0.3868002806222439, 0.41273877486414834, 0.4561300589058415, 0.3747330888153486, 0.3924434710619758, -0.20390038564846152, -0.5281970442951333, -0.11413879642890996, 0.20912387202393146, -0.4357091614071145, -0.2335884741658991, -0.2863464914169804, 0.24146851752358256, -0.665292277935254, -0.37578360875191574, 0.5928124631227256, -0.5786338187671326, 0.6842572079832945, -0.6374285062968947, -0.46314450731731055, 0.12888512850334446, 0.5948335046866231], [-0.4864574033800492, -0.5523821353724517, -0.2816971535899535, 0.4787740231624046, -0.5139217425984371, -0.07818326917700973, -0.35099361617075275, 0.5795063713532119, -0.21558484264168865, -0.15781755287190943, 0.27321708473382983, -0.045475934799700087, -0.12140306900877347, 0.2182717853972587, -0.46208044095169043, -0.3403137674002897, -0.6013742501941591, -0.5394263781609304, 0.6424010058603028, -0.6191724632720463, -0.5695063109022528, 0.06309114469550815, -0.13650385670441784], [0.6797996747362399, -0.11185598493853838, -0.3390050938160054, -0.622742261207779, 0.289203407669808, -0.2795946579739741, 0.05952948371535401, 0.6958743635805231, -0.2208486298145167, -0.32615087644300805, -0.4535218322440725, 0.21093417498156106, 0.23198659475758196, 0.08672569323325172, 0.5984239621157037, 0.5067959229520222, -0.5935893630816415, 0.0483125595838504, -0.4866029973478575, -0.25502130427522884, 0.10526046781616161, 0.15526427514668964, -0.5165562840605377], [0.5964246419458338, -0.017148723301303348, 0.21194757856609564, -0.6601482896580563, 0.6221922069455226, 0.6429003272557747, 0.0726826494756863, 0.2938908925758977, -0.16583824484519885, -0.3314274978080989, 0.5816477554068632, 0.38171490691838683, -0.5411605920159727, 0.5385157014332986, -0.2625542036260739, 0.6161049824699082, -0.6741899149833408, -0.07380067065998712, -0.6434982877311178, 0.029457073610170432, -0.11463236034387787, -0.5165386317418749, 0.03729837417519642], [0.6934859381343101, 0.6830217899346864, 0.26426269504029287, -0.33325461850668464, 0.38367958957234355, -0.5777529253117712, 0.3844000108921116, -0.1230967634230962, 0.2602181167694865, 0.48295987785485645, 0.08562534972337185, -0.09506936896485485, 0.37743907911303637, 0.4466606235921905, 0.02950166786834585, -0.012935725374286694, 0.14334975150428758, -0.6943583321085597, 0.060115876635363774, 0.050410453291022776, -0.5318444282818272, 0.048032482754439026, 0.411858122662743], [0.13320071299794775, -0.3182241578425142, 0.4183495366522342, 0.3212754960949584, -0.5417251435773576, -0.0016148233149521683, -0.5536030907864075, -0.5360164997210336, 0.2825407067119106, -0.5294787301316343, -0.10897524823028103, -0.3335881720975434, 0.32245561594193317, 0.6049901187123723, 0.5389772625241515, 0.2847247375827271, -0.5246928044041796, 0.23353275918009392, -0.23017161048150528, -0.6231736871199355, -0.41682642645551565, 0.44238969439950665, -0.6023271365563766], [-0.26793004514318425, -0.6393890468507779, 0.26719941759974347, -0.17053519916067245, -0.10031896877344737, -0.3659755894854613, 0.19299745357276468, 0.12207111779591649, 0.33813305842723096, -0.3334875986113446, 0.41019445435924784, -0.2898039468554696, -0.25435517528750334, -0.5374841086422817, -0.09289055908616071, -0.6519324812425623, 0.05056517891950241, 0.18676058447849364, 0.26953815394765024, -0.15356632798545033, 0.3152013025913418, -0.5280859462883672, 0.42355169885877125], [-0.6832918742505901, 0.543698505625474, -0.09839788854151317, 0.37476765821608066, -0.6419944731208026, -0.5158889106409988, -0.17363886966839662, -0.3146605587748913, -0.6202562215349178, -0.39461949482578185, -0.005292257136073248, 0.20460910841657332, 0.5679996714731562, 0.6444766106526153, -0.1329861157725748, -0.06444813242560771, -0.3682126850947224, 0.30275559098063143, -0.6717008832390394, 0.5042576375825361, 0.3643022960203094, 0.020558860806971523, 0.009163466885378816], [-0.5336413073061208, 0.3260033628228149, -0.6681236296544917, 0.571301026940443, -0.22994609781800276, 0.5486723429463755, -0.5218647146227445, 0.16264075905500786, 0.4222067656671265, 0.5691839784496985, 0.2349515528918922, 0.47963934187463914, -0.6626488949645837, 0.659310130911586, 0.27248362794417735, 0.19094307333917135, -0.160833084074825, -0.6598932351085128, 0.2461060684681919, 0.056010473624882554, 0.01721671690064103, 0.639587288654973, -0.5176319663461108], [0.16340771049520703, -0.16283407752893145, -0.6306076808063681, 0.135007269544142, 0.023488376844133428, 0.34982327384746, -0.33507204414355773, 0.15832012419387928, -3.131269877367163e-05, 0.5008509267418074, 0.29763123003217223, -0.6519088281106281, 0.43318557621984566, 0.6867683937362764, -0.16809698297971395, -0.4238028540073813, 0.32040886846873484, -0.6497176327841799, 0.38734114818492077, 0.24907358130903104, -0.11120839014392289, 0.5195731406580673, -0.7040213388544801], [0.07190680487813228, 0.1521408181644045, -0.05568990625733662, -0.3963408400337949, -0.27707018437639214, 0.382657886868516, -0.5358116070139515, 0.12848161408031322, 0.41551357679187767, -0.26481629163503356, -0.12765902240588953, 0.33442512240317246, -0.3697902701100098, -0.32655752777929437, 0.5523594891638164, -0.6941050588603733, -0.20406361858465755, 0.6108000119726186, -0.06847667187969886, 0.23602044282841153, 0.5868827089973723, -0.10734682919998768, -0.20728448324765958]], "Bias": -0.026496603246844525}