{"Weights": [[-0.713392236728666, -0.05046002390557641, 0.5921991505292862, 0.25167498318037773, -0.6406409084874292, -0.21095660522910123, 0.46193935925835056, -0.6141598255804265, -0.2726154357982115, 0.043092121012757834, 0.23426316284452692, -0.10421391319538212, 0.08886731495086272, -0.19940482201745494, -0.21580822930446542, -0.026509747708931497, -0.08231351802039183, 0.029182189519041796, 0.021342900249964374, -0.07771563169253896, 0.16750550046542093, -0.28269152577501266, -0.07327322256542632], [0.3402307342065454, -0.29562816898080363, -0.26582218676913283, -0.21117328818171055, 0.05022416307764682, -0.3762556975993422, -0.048059406672140925, 0.08570438614904392, -0.28660741385003097, 0.28115643509800203, 0.3946021477016805, -0.6584371607730017, -0.562891642287255, -0.28440533374824356, 0.06642798440563627, 0.25709309265331554, -0.197478945620064, 0.3352084476596873, 0.0928916448114527, -0.5046690471096127, -0.07680447313512612, -0.47628708185711177, 0.5743870880622807]], "Bias": 0.06441683291317113}