{"Weights": [[0.45833863892268695, -0.3351869072365222, 0.4133647082241372, 0.004465172147346671, -0.3294194255870514, 0.060198059098090985, 0.42459645382252664, -0.04170155440748881, -0.12198211555416334, -0.32327840017440135, 0.047344801702145146, -0.3775779074691258, -0.17754423048437176, -0.01563476197118709, 0.03287513245912718, 0.203512106651052, 0.0749953506160928, -0.03969272578125133, -0.37380919064844215, 0.3726295154053063, 0.2388976483328746, -0.17242616222247922, 0.14804231072190982, 0.3457700398713678, 0.19881894564422356, -0.14828255953279065, 0.12106626486078892, 0.49421383415808684, 0.046871309182586564, 0.31214117254004226, -0.06087692816047265, -0.19558212780747936, -0.061419185315161495, -0.24945865876673579, 0.4680667946849026, -0.6393468389472209, 0.44039364550200116, -0.29660411503445205, -0.050613982065848495, 0.10301330661284117], [0.3567106278280649, 0.6817416770255456, -0.05278246467839112, 0.5762415572607923, -0.34437292568841865, 0.26812913642057634, -0.2590547931659896, 0.030204031411750445, 0.3234629638732167, -0.18208752589451965, -0.05845318565974383, -0.18434228309634015, -0.15536716578015566, 0.04410217345532687, 0.12949724004008933, 0.2190937157507326, -0.49884341943749766, -0.3286540056645637, 0.22833740934430896, 0.3039391669144103, -0.017894574492725128, 0.40476976167503487, 0.31266265352835587, 0.08033441105084929, -0.19966754543233828, 0.8853327199530313, 0.03982284827369936, 0.07777413225154423, 0.1858034141229142, -0.30802239388895164, 0.4779221005740023, 0.5796752442666935, -0.03470005244788997, -0.40550847149492014, 0.2436721879341237, 0.6343938774678519, -0.22542762845220116, -0.09549611576772285, 0.0024456759442830637, 0.13787532177536693], [0.42788030978187747, -0.21349278786750508, 0.1755810939326945, -0.09114209902573428, 0.5302052182048429, -0.6619487176552894, -0.1008799733451532, -0.20814120225414987, 0.6432470812405147, 0.025283858980488624, 0.5699636980417043, 0.014926699118095839, 0.2875319517138658, -0.13974437942059964, 0.05023193083852373, -0.2665975067176684, -0.310665116360261, 0.31905176669216556, -0.1423777957559977, 0.7303905915777782, -0.05965705963075882, -0.23330612000434894, -0.7246996262194113, 0.25616552079822824, -0.07259781705979562, 0.012466521775665696, 0.26031806476653496, 0.3343526425889623, 0.5822823135103637, -0.19486108116715126, 0.41876834469747426, 0.15217851454243594, 0.038231553832784135, 0.24822646586141847, -0.24012064976424977, 0.08259924340465558, 0.7180220410051928, -0.19115701495343362, 0.11112096143466287, -0.04633564030087809], [0.42255577867258987, 0.1797299788448096, 0.1797217799448265, -0.09745486228841962, -0.01400824819470372, -0.17710033313372409, -0.20277294983858044, -0.24653935635158397, -0.7266637789824072, 0.08121567515218188, -0.2491132995568744, -0.022165268590686567, 0.11384868557688627, 0.18914690796180872, -0.369589716774439, -0.07803951473196238, -0.3022360408433588, -0.17287188234782358, -0.4944332373995473, 0.2559319026646326, -0.5377045510845262, 0.15476547247730518, -0.23643870117268306, 0.6515150720313798, -0.31973810183829915, 0.1620170524522199, 0.028754368381630795, 0.600501515903472, 0.202138037463265, 0.2612686576905298, -0.06421627890937003, 0.3599909953757186, 0.10922339545744854, 0.2583426034550346, -0.35216105998362474, 0.017429815734566114, -0.5836077341187234, 0.3261356310984172, 0.057971579155038096, 0.0178604758062964], [0.40515948843779415, -0.027372679339359943, 0.01095248252033169, 0.03147143052290332, -0.17539394584667714, 0.08477235927455895, 0.3686123928575495, -0.12206737330901297, 0.01081282935929167, -0.2966160368867116, 0.38230672466849774, -0.032315919987314604, -0.25782097056207204, -0.09962179930259517, 0.17416042921903896, -0.32515492315026634, 0.5088007173256068, -0.05972531734287319, 0.2739365638358509, -0.21045598782847977, -0.22504502019271916, -0.7113510374913973, 0.205104434881097, -0.2251716681690699, 0.4221010998594633, 0.04399828595193777, -0.4646861397078986, 0.19479925895866396, 0.8234734760067266, 0.5278161667778825, 0.16650397817527857, 0.207396211223847, 0.06628463873721463, -0.0012167570097062082, -0.1376368640357628, 0.2929084880781099, -0.5637955384746899, -0.17822086630823544, 0.31464695891954353, 0.3064916073479276], [0.1961240759989885, -0.19592833120020048, -0.05698270627278222, -0.38359279430762816, 0.28802678051819647, 0.3618507288485138, 0.05067641193604343, 0.1865549440947603, 0.19057698572309412, -0.34505950114941236, -0.35921843853391205, -0.2556905524088178, -0.5364613091010559, 0.02677202676561124, 0.30550640037787463, 0.0017948949837182722, -0.24427996351230627, 0.2370668637233491, -0.5488119946700438, 0.12678527979842463, -0.04592309590983945, -0.1488389741019316, -0.45497869464526947, 0.07764191677509377, 0.04982419024467377, -0.18603036593667227, -0.4635386175886944, -0.1297144605702547, 0.22371465538358123, -0.04975508129767407, 0.07700303740272597, 0.34934506141325666, -0.008234422681605475, -0.27990065946440756, 0.4290820834931188, -0.2178974649480451, -0.002301791219395957, 0.19959168714942335, -0.11541911746548159, 0.29394750658242347], [-0.15966405819351928, -0.09050166178617015, 0.1465424258889996, -0.28852255363967555, -0.7716417797913836, -0.04983094643246492, 0.03592585991166435, -0.06951795197730683, -0.17673578516528554, -0.5804527550035529, -0.22768027896371446, -0.7957731340645706, -0.1951273709898718, -0.4836877937574128, 0.2491831992891555, -0.6774324622478739, -0.14426279357709784, 0.4579071028791337, -0.04289186177125008, -0.4106040986407508, 0.3081390254631752, -0.29565129268318785, -0.33780366436294157, 0.016655632543019185, -0.0098404434159235, 0.09738401545012255, 0.4006784341332024, 0.02322446314289265, 0.1362738528728705, 0.12415774362213096, -0.013450657485798915, -0.04212838745448415, 0.13857440023410095, -0.5660838651157245, 0.2469722284280202, 0.35714883827914756, 0.38338083650826377, -0.05844128251798977, 0.25532619800119066, 0.20682881815349838], [0.22546469421129858, 0.6097761443698737, 0.4637346150419317, -0.31277615710351836, -0.2761529254720425, 0.03804796282237525, 0.04377663487091157, -0.32815718069346556, 0.001072793844795012, -0.6040114541397152, 0.44894051564834786, 0.03386678539133975, -0.17789603903892937, -0.5010021668126002, -0.13190663642741002, 0.10257873684003749, -0.08985500157739511, -0.03244794707177105, -0.15445221838417653, -0.32680390728851005, 0.08987328111979033, 0.2897823959925805, -0.6598510649124221, 0.11354817337356361, -0.19624057994441618, 0.49217157651351545, -0.29773472745064267, -0.13542397402284712, 0.10800234853737906, -0.005191788332109087, 0.42920250438511687, 0.01163960024599072, -0.5972995110546877, -0.9208886325614903, 0.09657813958369509, 0.005376422884536161, -0.19956931124764402, -0.24222980089236973, -0.07878920680179823, -0.07029241716913566], [0.04326258906196797, 0.36705423360037226, -0.23314317595495135, -0.2717386089817767, 0.16742622967904958, 0.012206152377889863, 0.17427891876889118, 0.22833225754394032, -0.5984367006217263, -0.20708697536018583, -0.5504149924387937, -0.09008440327495783, 0.7455348179822969, -0.22208931643703592, 0.3581152527283825, -0.02108280858393002, -0.4130899719566738, 0.057826575407427805, 0.4218612324569477, -0.14047358286082134, -0.25199297323136216, -0.09769488345677255, 0.4643089161153695, -0.07250336855478834, -0.3205830744260571, -0.5334650354583885, 0.3545291541013359, 0.26821562416016376, 0.05867684286494915, -0.3138463738511137, 0.30415405360495285, -0.024612117633998083, 0.4188654278346562, 0.1829431122870483, 0.09173641200829105, 0.0020790320933050375, -0.32650726950132336, -0.09027302730778757, 0.1132666254543805, -0.11314236876970354], [-0.19003788280564027, -0.2926927118572277, -0.03799098570457888, 0.2917393230705653, 0.20005939984946616, 0.1974227422436061, -0.11361427550636286, 0.1592290735275015, 0.3402759297122722, 0.014997759289862212, 0.017325835894546282, 0.35389381312417645, 0.05792964336374744, -0.23773003650794616, 0.20160823662031732, -0.11103780198919579, 0.5904605416168283, 0.21501091545199436, -0.04535851576453421, 0.3644099126658114, -0.28875000203744344, 0.2507810950765004, -0.3639923621277053, -0.11310477102298855, 0.16358083788440614, 0.27986167990572763, -0.5778358016336596, 0.2094104276979567, 0.326396943459671, 0.045165811678509235, -0.185910718370598, -0.33356864870207675, -0.09556468231083237, -0.11554948799789422, 0.15293387144982612, 0.09379289621866391, 0.14408810801667582, -0.41381270355972344, -0.4020064321884139, 0.44003549404652953]], "Bias": 0.08417773906282748}