{"Weights": [[-0.06961350411864058, 0.556741575206297, -0.161247194848201, 0.28672521960939207, -0.1335404487780098, 0.4410084482733946, -0.4152562007253292, 0.09040820800511039, 0.2618476091674707, -0.010034890453782034, 0.8555150132159939, -0.6388871470250083, 0.029444825644085255, -0.059651882103999035, 0.6143745937732191, 0.3286334820684137, 0.4196669166547187, 0.39169905063493055, 0.13731425553387921, -0.4211993896659928, 0.12736727836797843, -0.220397101494064, -0.04381503256932901], [0.21226413349075396, -0.1666657968670636, -0.14375727923231424, -0.061118086875505524, -0.2436558518147376, -0.056873274697159505, -0.07950691268492466, 0.11376995097776071, -0.06331228972247578, 0.1338979455349838, 0.2177164257651953, 0.05361365649683715, 0.13263477144710223, -0.2876841876786607, 0.021974203608718133, 0.06645369975697314, -0.05094071220622416, 0.11065719604701962, 0.13591321667219283, 0.25061150990831754, 0.010034439707901438, -0.056923021468977306, -0.21353612840199937], [0.277764841531469, -0.22236777284278042, -0.05031787822728207, 0.28963514409758806, 0.10962448141556837, 0.6574755815391391, -0.15484830712851852, 0.16149300799764688, -0.09330617263366467, 0.32027923842835254, -0.2566871527807053, -0.3186412929566896, 0.5507154180694598, 0.05752633578837095, 0.05366674131580257, 0.04117800056953156, 0.14021452668413237, 0.3613581793994199, -0.31220204960859993, 0.23263472713759237, 0.037723376972275194, -0.09558085865262136, 0.3126383332956763], [-0.28613667516107943, 0.3125516661703467, -0.008347072246050743, -0.028873522239283914, -0.14382830094395208, -0.12285434299538224, 0.2935657277754498, -0.05211371686347361, -0.5557458226072727, 0.1350688805905016, 0.03394547966784644, -0.2668184838053268, 0.06559514973212645, 0.012434807136838956, 0.08603386683149639, -0.13761731810175096, -0.1805552573229021, 0.06471622505582786, -0.15633310399766334, -0.08509053999892467, 0.3394671769007521, -0.09652031469088004, 0.4372689637221362], [-0.23397536917264208, 0.023371843192316576, -0.15562580899901748, 0.4987706704114393, -0.29109015153983864, -0.3395035167843327, -0.3941973174261911, -0.42785051401913576, -0.037835426299012244, -0.1272387828945784, -0.5327501791865515, 0.19326470702360807, 0.2597055245990756, 0.45683637547177514, 0.03772281263892451, -0.44557811655903207, -0.12614014483333152, 0.42142594687814694, 0.028269779604394966, -0.374840635977232, -0.05203003735699559, -0.2747273866056722, -0.28531644755289287], [-0.15201546888126027, 0.41715033416531416, -0.16788116839121048, 0.14388176934460153, -0.08977362279938343, -0.06299779717408455, -0.0735124148754205, 0.040112701962408355, 0.5708814304643286, -0.008883654110854912, 0.007649694390555694, 0.07022003908392087, 0.15405198784570368, -0.298194868415937, -0.22512351362087957, 0.2444752682949585, -0.1126376109726869, 0.040490110901986606, -0.051263747224999656, 0.3531877492380044, 0.043330621082128463, -0.06016451980525799, -0.15197836340061444], [-0.42793150865303914, 0.21567028808268818, 0.22752921810027735, -0.03831937384146459, 0.5063063859217809, -0.39293760180151327, -0.27304585692226196, -0.14847628111850839, 0.23457593039304514, 0.14807486666887248, 0.32073112402185294, 0.2366358875761917, 0.5151803709318943, 0.058165435052498354, -0.3286801068383456, 0.45846023762915583, -0.3316793078349869, -0.10260060226277949, 0.2788621699577304, -0.3503276730860203, 0.1246861721450922, -0.4090766013607182, 0.2693652696231442], [-0.13571945621941547, 0.3078124017181167, -0.33322333783983055, -0.04345191989370067, 0.4458884200831927, 0.11291833564506054, -0.3631011374031851, 0.07307140157428395, 0.38659399184839405, 0.3490020265225503, 0.43815824928853847, 0.2616921936518916, -0.4877440169198552, -0.297928283149065, 0.3963242711869, 0.029361979195002413, -0.40284033893880467, 0.0354395336536461, 0.47732586943805366, -0.23712494814882284, 0.2784524481637934, -0.3678854054510389, 0.008271499357675655], [-0.6009117478321186, 0.2423924389067858, 0.2138423667206549, 0.06268130273879778, -0.21821244620783237, 0.2558077463890366, -0.8581455470001672, 0.07147269543559819, -0.41710947371137735, -0.17919635325699065, 0.8410598370997976, 0.11093335928547605, 0.469636549854665, -0.2115924853216395, 0.02939700090369513, -0.2686801124468837, -0.08583155146725191, -0.3564912276043963, -0.016106159370073342, 0.643135504774692, 0.32717771351197944, -0.24123041470951972, 0.37840845574654103], [-0.24090280453396612, -0.052155681083101126, -0.11030440168369389, -0.3750473397135035, -0.046934489177519204, 0.12225937678674342, -0.12090709529922544, 0.02643763244176905, 0.2926967053537182, -0.5219043340385515, 0.11402653352218547, 0.05055954127488826, -0.13580458455485966, 0.4601563434749686, -0.32719738074095145, 0.29266315974535956, 0.20028140380712842, -0.4068554959489789, 0.6445860395825176, 0.2799135774636402, 0.035662322216397424, 0.09200992032034752, -0.3210148417233063], [0.0412531497309382, 0.31263920527947564, 0.5170213070214824, -0.4009725707139117, -0.13331548265626478, 0.12561743280304427, 0.3942813241945329, 0.07393189168543035, 0.014422288656828635, 0.20136147468777088, -0.11075800598757102, 0.2472914323385237, -0.27076772041531766, -0.22034668511860642, 0.014064700530085983, -0.5366165314421489, 0.5112200361330423, -0.5170418904144961, 0.24214911294330932, -0.17758516662834098, 0.24996222540566385, 0.1023325497333403, -0.04212440592058023], [0.14544168866141807, 0.23006830325557034, 0.09198901874248992, 0.3382282184269401, -0.6674061263574984, 0.017570792402221997, -0.4358988642152765, 0.3113609084667135, -0.4118173954300325, 0.03596135624717167, -0.1509646479158548, -0.7183522487496542, 0.20650641354177182, 0.4716660476850967, -0.026540016087030934, 0.6500199660597756, 0.024042794971565126, 0.18980001715834896, -0.10331642405537463, 0.3918815986080071, 0.14451410786149677, -0.012087868091489519, 0.2872933014605446], [-0.022637137148071144, -0.14772961017145708, 0.14841435603544517, -0.3037949313460748, -0.26273800121266006, -0.2809938346159273, -0.06092700460579755, 0.06527008877478095, 0.2528097169403475, -0.4467418388438413, 0.6776410421807197, 0.29071434087713693, -0.12422472429129444, 0.2796083934269254, 0.23168770505559694, -0.191871262155581, 0.2743722681719358, -0.4091841103210192, -0.3973157031895734, -0.5068621672576052, -0.42406713331707124, 0.6062294237709064, -0.11164964729592672], [-0.23404166096747353, -0.1736265745132598, 0.1586585847734737, 0.01715676847262707, 0.09761903920535425, 0.33560775576967766, -0.3254154835323697, 0.03388660518451297, 0.1863654436879546, -0.4638436110933416, -0.23232419092009685, 0.21518233988919636, -0.15918338641415178, -0.013966061446243922, -0.301822932655186, 0.009409044403827348, -0.1688195077723656, 0.05191471761626533, 0.05286353651719213, 0.21776687639289738, -0.12004696232635362, -0.19772587408198156, -0.12309135731002512], [0.47302702189943857, -0.14306113107169857, -0.2777478383520769, -0.05292970640854001, 0.19130974650048624, -0.03770056710846103, -0.16362951299979964, 0.3027602021754171, -0.06241415450657947, -0.3652887424750859, -0.1643561903952271, -0.14573918145181686, 0.15729700257158533, 0.11098114227320527, -0.3915758807626076, -0.10970011647121124, -0.5402771647723675, 0.3618925793500034, 0.08559928524797393, -0.5138713092899776, -0.04837698657722827, -0.16139805867541826, -0.15184237362969363], [0.4519655939840065, -0.23309788103337664, -0.3775501502552716, -0.14257736808540755, 0.28119919791337505, 0.04080242762206416, -0.1287865936689707, -0.08143189902885609, -0.13171464515344436, -0.1388168456133138, 0.11937818994682542, -0.10453872548103328, 0.22033145810375088, -0.5728154102976725, 0.14976227314266322, -0.4185780601682414, 0.0778062292612463, -0.05625943506511623, -0.1358521716297568, 0.4881126283197237, -0.5021303808725786, 0.22451130862408497, -0.3246849898467795], [-0.49691995395133337, 0.3148798152653473, 0.512883075263357, 0.16344784032722598, -0.007559856069158469, -0.17953460413521527, -0.8690915951013823, -0.32181875300022356, -0.5391523538377665, 0.00602245143678286, -0.3236099448081496, -0.16296056641939774, -0.42882739108565854, 0.19245617887381883, -0.533178090172534, -0.3908037147751919, -0.301250186457943, -0.5078966818913665, 0.14770177557279773, -0.36215023074337266, 0.45037225571522593, -0.3996936539973048, -0.2111230732985671], [0.19000762127760634, -0.009430766361043764, 0.16202118580662206, -0.23253500455068696, -0.29989524517922306, -0.13357205169888783, 0.35037747843360195, 0.37261748394251903, -0.1364251050132449, 0.1821367490124246, -0.4285233759944008, -0.2829971597886516, 0.0773089495506355, -0.4928612017804141, 0.5887522832879101, -0.40039607568960006, -0.16161000414730692, 0.15235407287643396, 0.2677795282126917, 0.11100576949352427, -0.12049102487282418, -0.5007798877456918, -0.16101055943372156], [0.2421655816908962, -0.06730935773294319, 0.28520125534764673, 0.06575454221777716, 0.19436068685732738, 0.1348234679542654, 0.24912549043198484, 0.05439217745269603, -0.1565943833881092, 0.27189381718410705, -0.2588621375551029, -0.17832988610946407, 0.17007672195029608, -0.3585944050833744, -0.19299335921541147, -0.17627547072548963, -0.0072785941312439265, 0.0029329116913082505, -0.4046291779813499, 0.41192257694233453, -0.03450503229900794, -0.14649093787001702, -0.5796630883375685], [-0.03982728507546874, 0.38279776692189316, -0.058469373395402306, 0.2883480186592661, 0.004815680879921158, 0.08706095347935706, -0.13119724372972716, 0.3221390395721078, -0.09201186574303781, 0.1578553412561115, -0.11601309279812497, 0.1618368395799148, 0.11684121431514016, 0.2046003260114323, 0.6074686916818982, 0.1166725810511477, 0.18372140591834737, 0.06440695092241935, -0.31943436014468046, -0.17628223667025297, 0.005774954735760171, 0.37589164480504594, -0.1706158261109414], [-0.15696220640568442, 0.19750938919491953, -0.3240932778819301, -0.14553671977432547, 0.5917444263923265, 0.08979648735296793, -0.18905353831196745, -0.2964579277835625, 0.15380450101153118, -0.297460986454856, 0.08555555732742168, -0.1173261163857522, -0.17515005384894416, 0.39631860046515, -0.08235409764794589, -0.28633124581309594, -0.14672508953971808, -0.17045544545913782, -0.4032176319182624, 0.14882185151715052, 0.15252086584657762, 0.11493199062094131, 0.4190760739712456], [0.45557388402518656, 0.07617679285502182, 0.21122420789476823, -0.25459044716695667, -0.0019294469744993896, 0.2968129131361819, -0.34985748631723257, -0.10090495235183787, -0.3484094995071946, -0.6036966321991732, -0.3526303071361431, -0.281529813225387, 0.009069677643848322, 0.407268744744511, 0.0553705083204835, 0.49914413511833355, -0.006012655771871771, 0.04126227988539302, -0.14429719530143306, -0.09034217848802449, 0.38426492984356403, 0.022358563858031054, 0.37112924003316855], [-0.8648706780519837, -0.6691119585740688, -0.03011084488359684, 0.6338048022923941, 0.1175281968748029, 0.33118168951288074, -0.18625466941478017, -0.5101662799578807, 0.24567907609675685, 0.06274355912343055, -0.07426776997124751, 0.09632625875664812, 0.3009338588401473, 0.5249424610917967, -0.45495838383089315, -0.18462016166164652, 0.3170097461943702, 0.5700365361384607, 0.1675880189255105, 0.21105871550094396, -0.085174528133987, -0.7482044161663801, 0.13076783746029993]], "Bias": -0.07285304512497358}