{"Weights": [[-0.04938555950280087, 0.25527378701941233, -0.1034795593357626, -0.14764730395225464, -0.046899290965437726, 0.19132072071328204, 0.013728965958539773, -0.21364870303551148, -0.06392864924586561, -0.2744136890472828, 0.19124407744538174, -0.029218113219354688, -0.022149856643897358, -0.2823752931348913, 0.20416548852187086, -0.14685543760098438, -0.14617350166318227, 0.19585191381027703, -0.22486928879380153, -0.4596316213551226, 0.016808936111935412, 0.33116950465699047, -0.23437289079354648], [0.21131157181714477, -0.3099152956679213, 0.21504952875523745, -0.12425335316064391, -0.08360989417486353, -0.1233040863470112, 0.2697958119513559, 0.035225673087689924, -0.20467350265022483, 0.11750946749634032, -0.06020321852457576, 0.12224533168517504, -0.17330035181955283, 0.18380400901678104, -0.15069710137102718, 0.32683113412627807, -0.07593507727002066, 0.0581348258792796, -0.07765523112644122, 0.5212868125533405, 0.331884396030316, 0.05036890976108234, -0.04991592728408865]], "Bias": 0.432338250690858}