{"Weights": [[-0.38940172519626615, 0.12034145246869873, -0.20890140067090715, -0.2944338260123977, -0.052215430582643704, 0.14570049315080583, -0.019902753000340005, 0.04333860187360386, -0.2138976912420572, -0.19350186902347277, 0.07664580088938808, -0.042218849064823816, 0.007121271426171746, -0.1674156350782781, 0.2216840480102668, 0.2937174082418215, 0.15115936833678595, -0.04056762226267876, -0.19969700243698701, 0.19080529087396203, -0.0673148172387507, -0.10682729135603314, 0.22476949559775655], [0.14207272531407122, 0.2259031088810416, -0.07662191439874551, -0.09358986206723315, -0.13702089597641248, -0.050942770944496986, -0.19276534314056162, 0.12963864171531603, 0.085711633293451, 0.1830656032570434, 0.15459750303345068, 0.25418802989795064, 0.13886557350251888, 0.20070167662461158, -0.19475039347970904, 0.12359729143866338, -0.1987387521002506, 0.04196587189267737, -0.19567624229215744, -0.23049180799591568, -0.04418917821044253, 0.04864668061356026, 0.1120692480313969], [-0.24289042818254744, 0.15713071709797422, 0.04736314941509328, 0.10710070425696806, 0.2644009998449006, -0.20567325503173464, 0.2819276199689062, -0.14119402721640276, -0.22171904308587598, -0.2178701334536316, 0.10066184597614729, 0.09851168984770066, -0.09448056478368105, 0.11052292906065429, -0.18759434854236182, 0.13694742733107265, -0.17228550224377487, 0.023347920918741077, 0.15300776376855305, -0.24320014972962303, -0.30721927312067276, -0.0164540898146959, -0.29496693438001803], [-0.27758553656839485, 0.02867824043083716, -0.028559107048578423, -0.055139101171085524, 0.31833593262417215, 0.10299892900136244, -0.26516306350378893, -0.1265381373077327, -0.08183127412423394, 0.3199031229448479, -0.23769956395395847, -0.13371325356206462, 0.17784613358235818, 0.17916073934270876, 0.0069080269248512904, -0.1433567409454272, 0.150404203461391, 0.3516396184550841, 0.012819975661347611, 0.0684898484342257, -0.10653906001532493, -0.047997184267673236, 0.19835599285679337], [-0.192126943833725, -0.21614527545964396, -0.13630935497321622, 0.18771530329057926, -0.1324778553094053, -0.24010165681845413, 0.058383655060432804, 0.21578986579989612, -0.21459855642308087, 0.23797515624820703, -0.1272615040807082, -0.30831158778506057, 0.02838230318185176, 0.3054375736920169, -0.10847724008719965, -0.041944872875394626, 0.3557053637680585, 0.12955404679490148, -0.23317330043672774, 0.016832751060736416, -0.18192019619832603, -0.041572634642175116, 0.05847077682508813], [-0.01295865798210332, 0.17113293274064723, 0.2936756768595569, -0.06661374545684821, -0.010237962935834887, -0.352050429193211, 0.06883995406532571, -0.022522891818147837, -0.09815254018317757, 0.10334552053422777, 0.0030503643570640123, 0.1244802534850486, 0.24440834383404636, -0.18730553643451028, -0.06186044548262274, 0.24821872329907965, 0.02368607158009247, -0.2087358572721841, -0.013038117989576123, 0.34402471539419804, 0.32421736902192333, 0.2813739579973511, 0.30138332468555756], [0.2610361006025694, -0.13595768471056932, 0.21657009056446508, -0.18672504771721601, 0.2877925002230929, -0.335621294685691, -0.11021669146330916, 0.18363721785378298, -0.1258012066160167, 0.3447127052016666, 0.2997067564286877, -0.3177509074805625, -0.11819493859867089, 0.23500551750985485, -0.3319750919657583, 0.04370838095227033, -0.15754588118517854, -0.023886133844139193, -0.1985057800644278, -0.3567881120761052, -0.05059386051907104, 0.10823888775184297, -0.07262635498550465], [-0.25876163517450534, 0.055378295313676044, 0.22644338409145917, -0.03130993600242971, -0.141568813132579, 0.1125793195165216, -0.06642401214747481, 0.286694450494148, -0.15374285059056506, -0.32256405664075216, 0.28038734439873525, 0.17273550781565786, 0.27401269772868714, -0.2954085641892149, -0.042194241177097344, -0.0733668416171846, 0.22480591916523343, -0.06023369252284737, 0.14314872596626507, 0.15984025489128065, -0.2796749621806351, 0.027065685609185777, 0.2492468078090359], [-0.34249726326772995, 0.12962535370949815, -0.3164661521703111, -0.35089200539382576, 0.041316927521854854, -0.0034109753829569484, -0.36668533283572696, 0.250538506958828, 0.04582711461688876, 0.3303887738491754, 0.0159144930180677, 0.059655666908960715, 0.3076459275684814, -0.3533342380826473, -0.19861526139464628, -0.3042681106598762, 0.3073660086632012, 0.25310685702377433, -0.2003603215006253, -0.2822674182025659, -0.028757313482552206, -0.16414664331148526, -0.08309134585426463], [-0.20352654115645513, 0.20371463798637496, -0.21125443597879334, -0.32268142551807905, 0.1955322966086922, 0.2642223121170883, -0.2232404571099899, -0.2500469620202127, 0.06970950932914283, -0.0770323383503235, 0.2949321504569657, 0.037268136822857414, 0.3222148285710443, -0.0652300421467311, 0.3030786416193555, -0.15138785271148658, 0.32116540479904315, -0.25224232042878, -0.30868146790021983, -0.19390069803054596, -0.16916531115113287, -0.07720014048714748, -0.15186898091022558], [0.010828597357411849, -0.32478075642934656, 0.22928981372221618, -0.1623386035502686, -0.045465026581597325, -0.26295009207291387, 0.2712900116155048, 0.2392172216458756, -0.10566014900569605, -0.05288845831118175, 0.32331598601422495, 0.2231253069457329, 0.25618564727950816, 0.2281944951878531, -0.3017277597110902, -0.15958095009842052, -0.0015942927994968068, 0.11967959763664457, -0.24642486912129205, -0.10418371291510523, -0.06273516699923931, -0.298071044050189, -0.015890270562633063], [-0.4927618209002326, -0.0440968419771282, 0.1826123253063942, -0.001944416766674255, 0.04840503966592011, 0.0895275972251193, 0.2586632168649747, 0.05559597837716822, -0.07176837256966494, 0.22776675430455876, 0.31040670774098233, 0.24498663650852232, -0.18924146405958178, 0.12381901263645473, -0.11570373269468934, 0.17346883670325658, 0.003950717002512336, 0.1354228968467312, 0.2585175597740639, 0.06031014964737387, 0.11199869276020678, -0.30629347594095657, -0.07230551555668288], [0.1420220764873246, -0.2726475900376729, -0.09294238069592191, 0.31745157021235415, 0.04374322220895236, 0.10692181617784803, -0.2693921142014539, -0.11970272975296631, 0.18005214043808235, 0.054075872107755454, 0.2240130764245802, -0.08881633245796723, -0.3597428290513921, -0.1311349845311967, 0.14061474210381092, 0.13587561436305834, 0.18410065674340292, -0.24200827306083733, 0.10847597245965403, 0.3301479847982486, 0.21626567827123414, -0.2912557986973453, 0.14013522369840864], [0.174351957007981, 0.29133620615563854, 0.22565161190725117, -0.18837282429565202, 0.2709324088974446, -0.19504503371822893, 0.11964699974961315, 0.09679230990382855, -0.01346256300038406, -0.21295980129074646, 0.34020158572679565, 0.3234003669182887, -0.09588769822080756, -0.3335761225454212, 0.2906872900073175, -0.31940843853420026, 0.33092344360481846, 0.21750571549270717, -0.2855550480123653, -0.2487582821919591, -0.1751571280941144, -0.11564617794562175, -0.18698913187455882], [0.12703269326405592, 0.27467033247378847, 0.006850970075564451, -0.02898301884629776, 0.13975451358150354, -0.35037931313305853, 0.20361429206623569, -0.001219572383514687, 0.11894608627362956, 0.14683490537200555, 0.1708163648429988, -0.2130257119542222, 0.17836885460945426, -0.08705727813374267, 0.3577349343621644, 0.33635928441181684, -0.13854409752006466, 0.31334781584459886, -0.22168113846730322, 0.03159758462501769, -0.09043116423441337, -0.12877422305640102, 0.12203283753638164], [0.14260645939160382, 0.23449910206162547, -0.008094237785242642, -0.29132386007631295, -0.3140581580955699, -0.14611391674319332, -0.02834397442638044, -0.1437594962989023, 0.22862417909679233, -0.029893638675421875, -0.12934472282715534, 0.07056088501612982, -0.16923417919460212, -0.27007156771566226, -0.277375497671431, 0.3176545782739711, -0.2742994456389455, 0.025014238249694197, 0.23214121309598676, 0.1888498891379632, -0.19399397704324906, 0.0017121177297599924, -0.23074504167658283], [0.278896588221745, 0.03825364426968612, -0.04492618054783293, -0.12203728285305031, -0.1261924821796995, -0.21756167335745952, 0.18432139953391427, -0.16432879030223704, 0.3217110297694088, -0.3680548685466081, -0.09990755350931985, -0.2552752428116269, 0.1031035862675506, 0.2683319976649703, 0.364571614577387, 0.16647255275446754, 0.28991327018950147, 0.31442652430992574, 0.014333261379278648, 0.35027003810504115, 0.08421682793168996, 0.23851124896109335, 0.1758750917848772], [-0.11126628728523909, 0.3082544252738524, -0.3718974353225013, 0.2809738136564413, -0.11311264285579721, -0.24700420056307426, 0.05075080003119487, 0.10555172830332328, 0.0906708952817947, 0.14489492519882693, 0.05381747930881385, -0.011021822830813398, -0.25772830472020597, -0.16932838856704385, -0.049171489277075014, 0.19097770051381383, 0.3208665567196097, -0.14161457381943343, 0.06172048517222155, 0.1314627771402769, 0.24529312223263983, -0.3229004620924289, -0.07896110010054924], [0.030936797186008565, -0.2616025602487087, -0.230625514371804, 0.022052920700932885, 0.09865191169807898, -0.3333651573096381, -0.02383896091545086, -0.07036698547644081, -0.008592889630866378, -0.2086134348795792, -0.15001181757337337, 0.029080272432192168, 0.30359314214294963, -0.10850303207426376, -0.21719303689677893, 0.1838453199742455, -0.18992725085308612, -0.2832226812624397, -0.17169134576444026, 0.32394231302357024, -0.19399171949613483, 0.29093024531667566, -0.10173688421516551], [-0.23819107362768946, -0.16492653704062643, -0.2114603002155917, 0.11727252393843514, -0.3070493565979999, 0.34427674791994267, -0.3334207991178512, -0.2646817872047332, 0.3149560956801123, -0.0415323801124968, 0.1955508877902181, 0.33102780130387016, 0.30200679160208216, -0.053724667440767884, -0.28118593089975846, 0.24386386102973578, 0.24497422299429303, -0.3077491098491491, 0.25250868533591353, -0.11279417654585747, -0.050281861128501325, 0.00891414163375889, 0.2822653374687067], [0.15136545379881267, -0.14382009676680413, 0.1596848352692025, 0.03360619933192285, 0.33377189380226663, -0.053399397261007446, -0.13475406782815091, -0.07966031593526883, 0.23461419606802278, -0.03515782521236003, 0.039816626221019245, 0.15195716065884285, 0.09618257863398051, -0.2953752901292229, 0.27351549380171125, 0.30876342953162933, -0.09884863005908871, -0.25305564744421694, -0.296756256291751, -0.07263487596838844, -0.27229337668331965, 0.2751423730630425, -0.1045476200726014], [0.027324001487468202, -0.08269532680011704, 0.25313717781515355, -0.04184928539214006, -0.25294833787215143, 0.2556898511576105, -0.08705727661510411, -0.16142805552292733, 0.33170818182543677, 0.3229589977490795, -0.04141124931703013, 0.057014987375398764, 0.005416811525559278, -0.07190525932988234, 0.11090954332154764, -0.3573247988357577, -0.1999248785111001, -0.3576085128115607, 0.2887950288969517, -0.09987471955719765, 0.2764155918640415, -0.17994328374055663, -0.16479524016941782], [-0.024057667561252587, -0.15149398689654903, -0.09876924777791382, 0.23621478544812183, -0.17470100036459602, 0.003912346244200573, 0.3048677318621839, -0.029566624273079888, 0.3555273246419855, 0.2791397421311538, 0.050775887318662685, 0.3146459863766093, -0.049713808850655926, 0.28565054748849567, -0.08164797118897792, 0.16824855071765196, -0.108623729803349, 0.2055067782428016, 0.17758169514738337, -0.26904673513659816, -0.38376446346716153, -0.02229704537673871, 0.17769230389299806]], "Bias": 0.2078869576772318}