{"Weights": [[0.178948663428167, 0.038573633764658874, 0.12166984011653609, 0.0749116345497929, 0.5322650984319041, 0.06613468488416882, -0.22669165202173863, 0.3085887407644267, 0.6158522476003314, 0.053574466438553896, -0.19119071131351123, 0.4327644614351364, 0.001551663111955725, 0.09166523713914669, -0.1574825870358098, 0.0013884308584475862, -0.33219102644171705, 0.2618097447425646, 0.11455316586836545, -0.3133554044981635, -0.030123759589013692, 0.44788295087936436, 0.18215132527827696], [-0.20420634431661422, 0.2043333175313145, -0.17270477807161602, -0.10577738157238571, -0.4163820390246655, 0.42485544824080873, -0.15137572010278708, 0.43181221664319513, -0.4639136094303741, -0.5025126456127854, -0.09707294211021714, -0.4355614082732751, -0.19868531757591748, -0.21335013121561952, 0.30943833184910696, -0.2746547738938022, 0.10253091482936387, 0.051595396425159146, -0.03781874686111041, -0.47533228868631544, -0.019282916149902733, 0.18410793847747792, 0.4069848803644971]], "Bias": 0.20826539959965343}