{"Weights": [[-0.00926664026915152, -0.1514772305131491, -0.49347673142646153, 0.3453932651733354, 0.21329825081986192, -0.29489230131797023, 0.8257268114015228, 0.28977352380471133, -0.4477325473162495, -0.3507296754489188, -0.420662345526131, -0.4051282708829046, -0.24466125581698273, 0.2848941061573087, -0.013914959725494027, -0.2536562112767131, -0.5067108452858294, 0.8947027749739822, -0.27888052893887816, 0.014579418279608163, -1.0807591686175686, 0.013414083278448228, 0.12103218987344923], [0.0025748033989573134, 0.5898688800090652, -0.20060457097131665, -0.08070579081049827, 0.4001767568932621, 0.6516654099010931, 0.26717104801280567, -0.5959206995136566, -0.1307193509468995, 0.19865570930259954, -0.34638917781613365, 0.3427505261585499, 0.42992927827800664, 0.20878924738822432, -0.3900093954679676, 0.5319778340702062, -0.24676853841103447, 0.13409505092694954, 0.33919363401546293, 0.003377966515223535, 0.35706352642574546, 0.08350641290204167, -0.037556491730138565]], "Bias": 0.09911541049909535}