{"Weights": [[0.11010800992416413, 0.04953063876077346, 0.16544081982584988, 0.11475433389240502, 0.07726777402318823, -0.06863756935694461, -0.09267889056100553, 0.025755365260195257, -0.02915781332398209, -0.04036561592143695, 0.008440195693099983, -0.17364422862893325, -0.12130076188868262, -0.13085693313369903, -0.1296041069675226, -0.13737026321648238, 0.022012099516089064, -0.047185358558642115, -0.15739635476628863, -0.0019240098654671352, -0.13570905791429966, 0.15470042804166875, -0.07592348001775455, -0.1182960381146815, -0.15555524518723277, -0.07381703817294266, 0.08205851975943512, 0.009404730652479243, 0.14608516137503152, 0.15340910268761226, -0.04107047318510919, 0.12310648279611831, 0.09613546730984789, 0.16670181667786266, 0.012725077300768358, -0.13637630885375848, -0.0509369026402627, 0.1529195035892767, 0.08075871657927784, -0.10220706685984644], [-0.03609447149249778, -0.11815829258681665, 0.13676907896066126, -0.18106718846336467, -0.03566531173736823, 0.04248596739767305, 0.1296846729064779, -0.046843013579715195, 0.07697432671673674, -0.007678444267897614, 0.20232316575022197, -0.05172023672592851, 0.07709875927192987, 0.12325509747116999, -0.12660889498281014, 0.06347690795666382, -0.15401093984170378, -0.030093881760359712, -0.1937861290860893, 0.15844650136411098, -0.1761572231840942, 0.11986371945548256, -0.1086344708411577, -0.054987172978132236, 0.1320065419046562, -0.15051919548962214, 0.08939833163371542, 0.1527463400948147, 0.005622999430800546, 0.15380841850820037, -0.1681024917081151, 0.038157349219526716, -0.17923044567340699, 0.09275650135332905, 0.19010554885244615, 0.09126133847308894, 0.17667442086675117, -0.07491355537205523, 0.15200887712877603, 0.0498778225829907], [0.16468728567598243, -0.1348948889894166, -0.09936835472535017, -0.035433975290713356, -0.2107378336074339, -0.09916599688398542, 0.1386948966332699, 0.03459821919873511, -0.029915431487189163, -0.08546349195023646, -0.0519163878175683, 0.04897954670159922, -0.13316014889875105, 0.07771824878794481, -0.1257361281259936, 0.1989618223985797, -0.06389662104930087, -0.11175137861413387, 0.08361731595725112, 0.22078533133651324, 0.06354062368154674, -0.0989074281835911, 0.10623313021984322, -0.05064662788898444, -0.18483357281795, 0.11067101443659333, -0.0834204713768282, -0.15053786025763666, 0.07563753267350291, -0.20436388219024829, -0.07096613670141969, 0.07132357494245714, 0.16132705861783994, 0.12591559317692327, -0.04692533758571151, 0.0021013970438917996, 0.09696994988544001, 0.012841555714163528, 0.03904517159916659, 0.11527229737110695], [0.08560044203855512, 0.09105314142436605, 0.09617247158899425, 0.018742431345287906, 0.10293194073765774, -0.14673665603017963, 0.11098398929595243, 0.08953056772352665, -0.020342303528753894, -0.09286533847562195, -0.07511793883531168, 0.10505521724855553, 0.004247183036224597, -0.1055443471230562, -0.1294761899650199, -0.043772228038395596, -0.016013259914829936, 0.14071637571560464, -0.02931828986012963, -0.1173535682793888, 0.1936376948439136, 0.14718092033550623, -0.1738597317247061, 0.1070505942884545, -0.09809076225120401, -0.06592723657836116, 0.08823441918862905, 0.003197759869230549, -0.0025893691359202813, -0.006499209298061771, -0.18058977866058948, -0.1463325823525442, -0.13022119244797523, 0.0095162226007493, -0.1507731621860049, 0.16371197590411946, -0.08223410943090186, 0.06210723868835538, -0.062313424876214475, 7.889524881297749e-05], [0.022951819630824308, -0.15626875431041334, 0.08563322232248734, 0.03457478476945951, -0.08637858843422731, 0.18236910989698493, -0.023411447800143356, 0.1551115616631181, -0.11522260381408357, -0.11537434388203563, -0.004254405311589985, -0.08211698839530225, -0.07586153884743466, -0.08358632634990423, -0.08599608256595054, 0.0907017480555735, 0.014503986411893174, -0.15224503229421557, 0.12035205011093417, -0.05902419115617472, -0.16185172216135835, -0.030128571080330888, 0.03281402860054048, -0.18844910800462386, 0.036576732192983775, -0.13850389220211085, 0.15174420308113645, -0.16877128936322228, 0.0750846543776823, -0.004613996449317128, 0.014293653973829496, 0.05343878480931044, -0.1773830630625004, 0.0030950792673729564, -0.1711664372541749, 0.15782222672441337, -0.10447145895170631, -0.05277190642159688, -0.12641738638628736, -0.10581226917960058], [-0.04613381193914323, -0.007889987318083873, 0.12815274197918927, -0.05007087943765426, 0.15369562283249832, 0.13621996709525214, -0.09469352963047933, -0.051042145080263834, 0.17271485340199824, -0.11364869581173961, 0.16550954596611403, -0.03769089868591598, 0.12686853783112165, 0.10402860295485707, -0.03370478348137725, 0.044537968949854276, 0.20481432252556556, 0.06322308604644682, 0.10287078954731137, 0.15621887222858055, 0.01206932178056078, 0.09435562130300254, 0.020145561525267877, -0.031052330335451038, -0.06498899459797636, 0.16293232035636404, -0.10635123788195987, 0.05717630960618412, -0.16489386583974036, -0.037911187262648686, -0.0499255054139464, -0.11445943891687597, 0.049634996403272694, -0.11729276304375726, -0.1485103778078331, -0.1188391856455729, -0.0377590304765427, -0.1283453933912645, 0.07718762969888954, 0.06992464271568398], [0.1519602253431642, 0.012079640766040635, -0.12731443466654968, -0.017609218434788857, 0.16392464895033562, -0.11938271600082245, -0.060605782620934454, 0.06765176964037711, -0.11582255040050644, 0.1761007286270925, 0.08876907299006301, 0.13762675965994656, -0.141739523473551, -0.09270870401606869, -0.03480279642185659, 0.0721525937928696, 0.024372649329958203, -0.034250766254016414, 0.18327891715910252, 0.06813062044857125, -0.17141658730979423, 0.1303761864361687, 0.10712647784947296, -0.02471822928916856, 0.08941274998985019, -0.029475931196150617, -0.015669567950761604, 0.15519352978710718, 0.0685430228004476, -0.011065027364459764, 0.012752707302756199, 0.016128310130006377, 0.015847468869644714, 0.0028069291707036145, -0.12682188469727254, -0.11504802341510449, 0.1768237306363363, 0.05726409018756301, 0.029212509546059234, 0.17404105286005525], [-0.07641519612588281, 0.17220223966818748, 0.10366948762577745, -0.16161704337289345, 0.04752759848013195, 0.06801190070375202, 0.1411781963647876, 0.03765429384797872, 0.09837142040857551, 0.07502768095779179, -0.14920398507023563, 0.22954137963383536, 0.18087880761663885, -0.08728445023919082, 0.03849719700579985, 0.15058348227782534, -0.09822109281531281, -0.13702896265748538, 0.050117849619037536, -0.002781188500454156, -0.11110992520353087, 0.011545414100584676, 0.09650568141147062, -0.04487804862424254, 0.05016595014672708, 0.10349134956200554, -0.14719828233264057, -0.030817613196810964, 0.13031427732281206, -0.00485981167834316, 0.10274996312338043, 0.021036910959320147, 0.08025761653343079, 0.07534820782839771, 0.05247799496342583, 0.00043575830480755654, -0.04676128167162577, 0.05398364346275612, -0.17382429444224626, -0.028917761257533914], [-0.030182907985364063, 0.12952416911463352, -0.1916520204605927, -0.16555091987094903, 0.13427552138789406, 0.098116722753091, -0.07460694799734972, -0.07943580926558638, 0.031387728378095114, 0.011021650657535237, 0.11231444854212937, -0.1127674813923179, 0.16363998305750804, -0.010777167926579845, -0.052495399851637536, 0.12432389923180477, -0.13436236439622717, 0.05411018289407954, 0.1261557461370928, -0.03567688844138377, 0.21812075443069245, -0.06601507899299984, 0.17089473589645002, -0.1062954983911011, -0.13139709438389804, -0.09884334385682136, 0.09756199425297421, 0.05187200233127412, 0.019680968198193677, 0.007933813086884588, 0.008799892903395508, 0.08246675241699891, 0.017909133365485115, 0.10352827189371652, -0.055075418652602584, -0.1261030483726791, -0.0447509117907303, 0.08831505763857521, 0.03151372719586506, 0.0026851434424036225], [-0.15072945256043405, -0.050009486513449615, 0.1302901820599108, 0.070766688496319, 0.12089979310614574, -0.11164096039164526, -0.14460447158962744, 0.006650016239191841, -0.09159492831829277, 0.1207361374407153, -0.05975481450494328, -0.1543239511728273, -0.002785224180058138, 0.06955234586120096, -0.09097520591062243, 0.0640152210181439, -0.19143896930792523, 0.09138592025987562, 0.03897991459427222, 0.12911408765452964, 0.043895672926393105, 0.04223995610765369, -0.07958902183992268, 0.17436281725952604, -0.014127996914314291, 0.14072019544129363, -0.1607952133345767, 0.03203866578976651, -0.030198567801171545, 0.12439953392810253, 0.20377158848257532, -0.11099793918933083, -0.11976800901667763, 0.03682813623132898, 0.05808179911752768, -0.10273287762004117, -0.14608148066572013, -0.15510217684425623, 0.11695163986292995, -0.06542004028978204]], "Bias": 0.052282747908899675}