{"Weights": [[0.15246184905734875, 0.3119543282677791, -0.05976216111717288, 0.0316449753883998, 0.31901689849814846, -0.012029351987428535, 0.01965398864155482, 0.022895507900909405, 5.48113501456177e-06, -0.19539903858822663, -0.03656301327590662, -0.08581456522588511, 0.010242391683569408, -0.06302677918836548, -0.14325456189844696, -0.12078828995277058, 0.2375451696399687, 0.46306642921851077, 0.13993048294776284, 0.24202502191329348, 0.04200853675909184, -0.07054242273841282, -0.20890891119561766, -0.04558785431661232, 0.12200238093841526, 0.17600071413492727, -0.2288553046186498, 0.11717018707414069, 0.4948890056968059, 0.12234697057552303, -0.008043261822153, 0.14146457772637866, 0.08081190520361134, -0.00285429701275558, 0.03170552698578655, -0.5452065229237916, 0.029978583681938724, 0.022209191914094855, 0.22291942648144059, 0.3909601756948438], [0.03625920719176001, 0.089451661086586, -0.021854206528217977, 0.329601080123986, 0.06850768655746403, 0.22206645730493593, -0.15023104137212706, 0.1517661111086917, 0.12276695627216155, 0.01872875347897177, -0.08365048909341158, -0.21213828572244436, 0.23994730481995513, -0.30786135366896, 0.2249373427579882, -0.3206466312770944, 0.01043370642657697, -0.11581398495280933, -0.06305484066791489, -0.1823308161348598, 0.062421803251799975, 0.1043159129245607, 0.27465049102577466, 0.4110747620654415, 0.08059977670380775, -0.00253691147351795, -0.21350695490157998, -0.15419460142526653, -0.12941030754758404, -0.020022050323194533, 0.056350724689382514, 0.14958891257111334, 0.051047242021842604, -0.05574115739072665, -0.1400404345146793, 0.5161745811282529, 0.022435481285696016, -0.2192071744244831, -0.03828304572106898, -0.5673013265662111], [0.017094761970392447, -0.05201311214498534, 0.02940888014602951, -0.16031215808051044, 0.06579812777955325, -0.09605244240152153, -0.19964091269203993, 0.05025385921254688, -0.1551880037465392, 0.004049280798402374, -0.06260466444696641, 0.28654114013161436, -0.011100748971501508, -0.023558003841090233, -0.1658756709563565, 0.1618321040676782, 0.03917676961852518, 0.23476186339771885, 0.3630625221268892, -0.11828117906061926, 0.05934422491032152, -0.013923899650286637, -0.0700192700956584, 0.09594281556820489, -0.17107027340297978, -0.3145232982534743, -0.06043758716927397, 0.18244974905178257, -0.13272925626746368, 0.08716329693519059, -0.042664368390880864, -0.13895819813965113, -0.03416612120090232, -0.2801370841660525, 0.27187394673345805, -0.04358369563019557, 0.01534693509404008, 0.13558013323955564, -0.08609865880157405, 0.43004044680016934], [-0.1091106069783623, -0.016001572943883907, -0.03421005573081898, 0.05999131822727481, -0.08042875915634864, -0.1276994751455511, 0.3380550871078784, 0.10320589726921102, -0.21402701246421083, 0.2398396630272141, -0.027087021252389945, -0.2308052221549318, -0.09477281241479307, -0.20534171500442658, 0.1561863891896159, 0.09643665225723755, 0.11545371099817843, 0.008189275305815992, -0.2350101860992263, 0.3954037734722965, -0.08878213749611409, 0.3338800678285566, -0.04717797188030329, -0.17514945276902386, -0.0281557843622273, 0.22973613673587595, -0.21067244965551588, -0.07061997825239441, -0.09376982191935078, -0.34780993898399276, -0.11328700663704605, 0.05269280412392592, 0.04208979400033536, -0.018612448451529377, 0.1076640412748842, 0.10529847986548689, 0.09968596686403831, 0.043108453462533544, 0.09005845307028922, 0.02538580862764714], [-0.07602351874428959, -0.0809809966411149, -0.02963999722267809, 0.13100260437655745, 0.23987249578968273, -0.004605956061250718, -0.036515854012309876, -0.007452811133966205, -0.12354658940742516, -0.05855692466068438, -0.04613049388791166, 0.188068460418729, -0.2681423768335246, 0.04010272103822463, 0.1766426183204472, -0.23773177086869737, -0.4547490035013318, 0.3087393349381171, -0.2902788984933908, 0.10179859122624214, -0.030496013470974533, -0.1657910880754392, 0.06324085628543133, -0.15534221622983363, -0.3105426242254118, -0.06244099628350553, 0.01121849482273655, 0.041923061437771976, 0.11916269939839323, 0.24218075723022273, 0.036330736024617706, -0.20252111201722933, 0.12963746023383751, 0.13430819368326125, 0.34208506814578526, 0.058060821420819676, 0.09248752005605054, 0.039844618377026825, -0.08503871852146853, -0.2123911335779015], [0.18410710412727496, -0.13612665509919414, -0.13822724314372026, -0.14931366481448835, -0.020561190193089468, -0.015843491553495178, 0.2754656132297775, -0.035382187580023844, 0.2273719446582972, 0.22275106000540879, 0.3261664453961256, 0.034702872539310564, 0.08693209761347138, 0.1536422584701502, -0.09168785844296234, -0.16142487599607122, -0.0018474720132566048, 0.1379457887576807, 0.10849736023340824, 0.05165216462413162, 0.2805708880302563, 0.1277796655779643, 0.1368583628277125, -0.26157299568214976, -0.08479935633867429, 0.08578021212409434, -0.011601366884704555, -0.07738613702665875, -0.294480436877438, 0.0644456804288992, 0.25932313794690265, 0.16688782223328527, -0.017590371943791983, 0.06715013904490025, -0.13445266390491273, 0.003192456204083678, -0.22735488222030562, -0.06532367967205759, -0.1122747318080317, -0.08690859093643014], [0.072592562984457, -0.010888374693531626, 0.17121786526905203, 0.07965593321722081, -0.1345733774896799, 0.01349633403529352, -0.008187218088747741, -0.08015333663919831, -0.02843209843074927, -0.20565001191307014, -0.10426900842563046, -0.22592140693991547, -0.26362265135416396, -0.13950532925313547, -0.12213258841665328, 0.37247816618484547, 0.20102715571952412, -0.005012933840005366, 0.2265603612987165, -0.1318702112597203, -0.21308661698274103, -0.2132674907895637, 0.2677179540380262, -0.1402098026330671, 0.12518550445216073, -0.07448692762540812, -0.01573240136834831, -0.35055520185589567, -0.4866451747956838, 0.1565188793440055, 0.04267637812513408, 0.1219853208961871, -0.024762927543837417, -0.18841160707019897, -0.13731250381516225, 0.026116435644364878, -0.019067293985676737, 0.7170811569138691, -0.14424125959854323, -0.3762196868165969], [0.33380153807635626, -0.09783371453867254, -0.11430695791802298, -0.01855175510817771, -0.06190139148581125, 0.04770664094065941, 0.20667504782761748, -0.20962247450703916, -0.21899336623176008, 0.028871631362731034, 0.12204514257387591, -0.2032935493260508, -0.17374696789365565, 0.07046291361909314, -0.3040786610013834, -0.07375147629533474, -0.3015208783192272, 0.3032277790640168, -0.13313993521238046, -0.13130434884296482, -0.04325807304227919, 0.00399898133575379, 0.0564106602160433, 0.1175711289508835, -0.04491265130598867, -0.06590358279475758, 0.3150173348299504, 0.07700352615543381, 0.4944766275839447, 0.14263745969596672, 0.16151509459319796, -0.3847276936527932, -0.11847343653990926, -0.029161273985960908, -0.04738881934184612, 0.1660752491120282, -0.06836009670520744, 0.15839558334748974, 0.27537712054269803, -0.05433388207154108], [-0.025879666141467066, -0.11829862186397165, 0.07976517850549657, -0.018434440293422862, -0.0022392539040786462, -0.3262772625669605, 0.31575300448943994, 0.04544588676610595, 0.2736959438002655, -0.12594471777733535, -0.08146293485319515, 0.0682940457239712, 0.20478087926012364, 0.12069573162701944, -0.10506198086712727, -0.2378950921416969, 0.025553299987106495, 0.01795696172516535, -0.12740202451341434, 0.0881322695457504, -0.12351221929087985, 0.18398692820921933, -0.23404979051342423, -0.4294990690964988, -0.06333787982238492, 0.025389582994754443, -0.22633458116791225, 0.01879594894520358, -0.01454506182941502, -0.11461653221108214, -0.062103429847602545, 0.11108893030445104, -0.10310746491684272, 0.03225252302087224, -0.2008669737717718, 0.1981230053534467, -0.09976152180659638, 0.019476208134042713, 0.0940406113364962, 0.09858983401734643], [0.025164290977002103, 0.16946094481342103, -0.2405740345110282, -0.07126461166529376, -0.1841899573927602, 0.03640065001197318, 0.09321878187749272, -0.06576393657301685, 0.14755261068097636, -0.07688177204998281, -0.17778794726260022, 0.16919033494304545, -0.03356457692218555, -0.0053817763431167984, 0.3290388662697158, 0.15895981236911344, 0.0775625732515929, 0.24673472862673343, -0.19140452045038944, -0.15491086837490448, 0.17595485676990524, -0.1428413313586388, 0.3006483744293344, 0.2347145658567822, 0.20750372136240786, 0.28334668960730525, 0.02023428502555328, 0.1381776849765423, -0.21363322311359048, 0.0705238256959944, -0.17488957266220873, -0.36744337896181756, -0.026279892865288947, -0.10630279159007734, -0.31238588437805437, 0.018663461809066053, -0.06457225478030626, 0.08141793652992951, -0.19483241709394872, 0.19272078829891434]], "Bias": 0.01458608765857198}