{"Weights": [[0.2778986952438339, -0.392702738426405, 0.14112415238529896, -0.7682785204410679, 0.051493256898817966, 0.43646964488259193, -0.4466617553398507, -0.3178183255548588, 0.4690112948509419, 0.7857106415422914, 0.1451543710664787, 0.016048373839337597, -0.08170803414321462, 0.6127449818764489, -0.14106744367144258, 0.7686087410679537, 0.16278059237664036, 0.07365493802041087, -0.06379676008348527, 0.697743076257672, 0.6403531441352586, -0.007107373836323603, -0.6600066303565196], [-0.6249854442257415, 0.42066761572993516, 0.06915630474800236, -0.08931160560757913, 0.5540267708906912, 0.1099140779517041, 0.17357837387778996, 0.34472201562940236, -0.39719894717869997, 0.1823474228915143, 0.04092160639521009, -0.13007090269371485, -0.27659306013190316, 0.13130090530588004, 0.7155511458487234, 0.2760436603558219, 0.007471965118748034, 0.2900227867429063, -0.906541954552213, 0.9687133323163413, -0.42624306502054893, -0.21851734810315288, -0.01928752621836713], [-0.42339893858599437, 0.1504964263218882, -0.6523122883459949, 0.22133424264414364, 0.24278079831030072, -0.05115479487280786, -0.496073487796822, 0.1598696542054616, -1.0641807227803517, -0.18618729112224047, 0.6650239164284231, -0.7283402730590357, -0.045958680485455955, -0.3788615353807995, 0.17096115018898306, -0.9618029987583548, 0.005947416253676745, 0.009244645575724058, 0.03589544041098506, 0.31886021480483273, -0.6682560570258959, -0.23044412905920955, -0.07131083529641574], [0.23558948653126532, -0.7600715564830784, -0.6560305907262408, 0.24705645208305838, -0.390615468043088, 0.20568173582126265, -0.3502945656950118, 0.2928203429931521, -0.38862734817857486, -0.2924527918886436, 0.35395822332262306, -0.4803762184473029, -0.16144770055450666, -0.9320802811338241, -0.4463276775810044, -0.4373944428998404, 0.16441527077290308, 0.21833143465196186, -0.05953711873284511, 0.0657370699913808, -0.04430646829736023, -0.36207714618629505, -0.3984561905813762], [0.703844361776924, -0.6581425043796333, -0.346198955510935, 0.20137340177177349, -0.2589415154316207, 0.20711764248804915, -0.23539103915352308, 0.9542048318553845, -0.2565634962465246, -0.38589116043794386, -0.846835970161705, 0.3601748279613579, -0.07925115211842397, 0.37236061340046545, 0.5060358489046572, 0.7510134801405539, 0.11999887445316124, -0.4934520149649634, -0.2962659608341744, -0.40210197779142703, 0.30746627026832957, 0.008651423686192605, -0.8869716049758462], [-0.3732913159340142, -0.7458833515842708, 0.7656233331708594, -0.016955795934912882, 0.17800750596621373, -0.07037302209956943, 0.06375650881356644, -0.9352330935087054, -0.18628358805978862, 0.2642496603204662, 0.09572426277623114, -0.24511242599520022, 0.26885202996913216, 0.6828545738496464, -0.5469038983404155, -0.05036717561997796, -0.7978047027064368, 0.09697397196134792, -0.45593886650984733, -0.05960461721853572, 0.5062838994265777, -0.5465120246111687, -0.24059906506802378], [0.36631473012777493, 0.16079183928383317, -0.06450571636478084, -0.19061900454904596, 0.6863652216019385, -0.5043000955421038, -0.40262535852999254, 0.06705321139828263, 0.23653707265420332, -0.2113905864119368, 0.043100788663770505, -0.4002703091596321, -0.19945034299382514, -0.5664339993550632, 0.025142877695030933, 0.47482232585040407, 0.5540591518176835, 0.5699521568517686, 1.1277925874312595, 0.678167254353276, 0.040033088539141504, -0.01663881852718147, -0.4748411267623873], [0.2997354671027829, -0.3781783302050754, 0.06802472390155563, 0.07099751652039411, 0.17172877808039705, -0.09130311246684551, 0.9155397373110119, 0.8330948847030586, 0.9629683984424291, 0.05020614520126562, -0.4143216103041395, -0.4248014685177987, -0.34472473792752056, -0.7954500621017863, 0.3015915439536947, -0.29335197941624686, -0.31397067567262926, -0.3323035531923235, -0.1086821709674923, -0.50098576762636, -0.20647962686090743, -0.7490851751052792, 0.666827584014709], [-0.6058034343427342, -0.645096583884447, 0.38638835346233674, -0.15918604409890696, 0.4629077197747648, 0.45033576853712415, -0.08297575919982189, 0.039468644262188005, -0.24544550316484043, -0.4184676327647405, 0.13227317543938058, -0.10878005522797367, -0.32560005231192934, 0.19301684742723246, -0.04419463513107751, -0.25998850469601564, 0.5757024892917296, 0.4211193821697088, -0.03371065092119765, -0.18963958249130095, 0.6622606866929316, 0.044711990248532875, -0.5051050573662159], [0.3256912225872859, -0.21999872425380648, 0.3207628810140246, -0.1847846371172145, 0.4269875627879714, -0.22751969575374117, -0.6465626486279948, 0.1856925100847648, 0.2410212999001733, 0.6137427138192104, 0.7242368674243065, -0.1584003541154599, -0.5584676027168725, -0.20290051377320178, 0.12495119170851895, -0.3493852445336295, -0.676803656398229, -0.06538346992703017, -0.4725216276948899, -0.14571139997356755, 0.07572887632881704, 0.3868163436414169, -0.19895896800931712], [-0.3900503835990412, 0.4307655290114889, 0.31468532244975234, -0.24820830158355572, -0.24314925868005302, -0.46461103512369123, -0.6614426853068374, 0.31300596040790796, 0.21394937188742916, 0.10647848805012745, 0.551220754868166, -0.05969283482082168, 0.45707841683554373, 0.6624193814324086, 0.29598337441379735, -0.32130931496715115, -0.722342294948431, 0.12881324090684687, 0.6350731417699214, 0.7998286206356128, 0.25546109974974845, 0.4236983622592296, 0.29001245544382503], [0.3561572845107959, -0.096301557284289, 0.32404960836389235, 0.14744234642323564, -0.8117451794320835, 0.7476589539828824, -0.15639328709129355, 0.2823919320371347, -0.05355726879733444, -0.3195442503179695, 0.7137552226843583, -0.2946190201702321, 0.013140945677577329, -0.1662135564882398, 0.3973161266751561, -0.1744844762110575, 0.3501520455481031, -0.31756211360903286, 0.7752559345047945, -1.2017373483389118, 0.21579817658372238, 0.243987493715707, 0.3250890253654363], [-0.09489440958568827, 0.20625663179728196, 0.4991061242037834, 0.06924087145550137, 0.6750148203935828, 0.09467696044667645, -0.3932010429252619, 0.010087460793612377, 0.4015739148784853, 0.13062512428985068, 0.3284886296780069, -0.7151973881875793, 0.21942741419230982, -0.3657551643721517, 0.221775996978793, -0.20640120214624477, 0.10080933320732016, -0.0899515476239214, 0.8518575676721636, -0.8215889894523899, 0.6327399266425362, -0.6908069810384351, -0.808430172416076], [-0.1926697941638535, 0.4323975038146906, 0.37177219113089005, -0.011816151967930176, 0.4493030853031706, 0.14851091293670843, -0.0279148276322284, -0.5866147311465179, -0.7870329969792424, -0.08037005272284538, -0.08297277885461753, -1.175406436504628, -0.04953150420031428, -0.0830323275193946, -0.24352608502918638, -0.40488209173623124, -0.030871566187238866, -0.19384207583277605, -0.01788827161038463, 0.3503475061271637, 0.12970228274957746, -0.33587869735459885, 0.7837722713378329], [-0.3546968071778577, 0.06357134800983429, 0.33895081841086416, -0.033108108985468065, -0.9164061882809655, 0.2631100672107293, -0.24727043320364459, 0.17448254258875207, -0.8903292289119517, -0.46274370633293255, -0.0005594162453973644, 0.12652472763180939, 0.848313441295127, 0.4616170993402123, -0.08664290223097142, 0.237628051215544, 0.09880744763084558, -0.019840902846458213, 0.1850820160938667, 0.039709955234627135, 0.2652450800735227, -0.25136427902324154, 0.19442600882045558], [0.29763367293592397, 0.16676632650389744, -0.40347238695794796, 0.6129285494468641, 0.3932151910430456, -0.43970881465804407, -0.47995289339561603, -0.16131209516586992, 0.24382793997422444, -0.7759051072358665, -0.8320867384750535, 0.24000258604334465, -0.46738571785704064, 0.08881530776171724, 0.050635169339842315, -0.9726067953026402, 0.4653225092384829, -0.5012940489121734, -0.17430162171822808, 0.5298869327311626, -0.07670619123166181, 0.5675525796795258, -0.051071088593904204], [0.19652624810337294, 0.7476821333393444, 0.4038242093587002, 0.3566804754845454, -0.19196011447995565, -0.6166073982713616, 0.22806806014242287, 0.6889914048449174, -0.3560763530296672, -0.8596604003612404, -0.29568442151525937, -0.1778678045001519, 0.10192272796507142, -0.15289606922557036, -0.5086612557391749, -0.46861697746373937, -0.20047919169134112, 0.3094556243219552, 0.06939787992160401, 0.6127240977527301, -0.6174799442494623, -0.41776479003907174, -0.09003309607469176], [0.2134704683846608, 0.07589393470347017, 0.054292876868043495, -0.024528956438952258, 0.5870593942963834, -0.3352593382841862, 0.33182850425219934, 0.26471244751075795, -0.06394278444839381, 0.24409311864336036, -0.23578333829662243, -0.5765371330959401, -0.9451097135549977, -0.06448304709473114, -0.17484125831521916, -0.038460641012679375, 0.26069318915531753, 0.07913517119978236, -0.3125151264361946, 0.6980479944055232, 0.14342064444560057, 0.3632659459660737, -0.20824728474574192], [-0.45972603757540287, -0.28584188425707147, -0.5476714169610872, -0.27570218033592586, 0.1372554431995286, -0.0017551758836204954, -0.01905551549534856, 0.438057729513505, -0.24835714343565646, -0.65371621555281, 0.313826555683185, -0.3340372686309886, 0.4861986472542296, -0.6516974124838051, 0.04554511102014426, -0.4392740940283753, -0.10987590948614923, 0.55237979210655, -0.4436394482744208, 0.4478056248207341, -0.31269190780364275, -0.3125172022421541, 0.29904950075557485], [-0.3127963922206591, -0.06227206545183302, -0.7925760075388485, -0.3790221908558185, 0.11527280178480506, 0.14904923338711573, -0.3239472397687821, -0.1156730885080713, 0.17346283842277246, 0.380385064606753, -0.25922540033025376, 0.0004674702160415155, 0.06744804704934343, -0.09445354216982298, 0.4212748782964789, 0.26838294147058717, -0.19883466046113266, 0.13455701095188285, 0.4610872230595284, -0.03127362364762711, 0.4817311415674218, -0.48874544951491317, -0.09980512210438316], [-0.4256829725813473, -0.23396729261458749, -0.18899237767798668, -0.07586362081433823, -0.8285939612283684, 0.1366477770487605, -0.0030897151746955382, 0.21584573350721528, -0.43309892034212244, -0.42722922577025235, 0.09885835934170453, 0.23095492563074604, -0.34609103239083877, -0.2911334946555813, -0.01957948741912496, 0.22558454932496524, -0.19819046733188764, 0.027724476397296128, -0.40562686997892083, -0.4971323359003113, -0.20998141149513763, -0.2527035617888848, 0.26852874689166445], [0.4270995284470325, 0.37787073096167856, 0.08191052497861054, 0.9743863365541361, -0.4186006472168923, 0.2154083578237816, 0.10764288452629647, -0.6543972284875754, -0.03761999048648112, 0.13702406291210262, -0.04384573392709621, 0.5111284693971057, -0.06763328867796563, 0.7129292494576271, 0.16685172675776463, 0.14901905738117835, -0.016182536475714816, 0.20302859252922908, -0.2071714893005187, -0.44554753440503947, 0.057869712941603826, -0.13397093135342664, -0.09329601879451202], [0.4851700325450773, 0.007464459887701187, -0.4093625151462773, 0.2862381754892951, 0.09091992207449755, 0.5490617574702644, 0.07181374672899293, -0.8054698038923549, -0.15274048939879833, -0.015618188813614922, -0.04329802510125765, 0.23448284612667922, 0.38748966104624005, -0.3362780269986523, -0.3374334699794895, -0.21986929617277393, -0.20797210011085163, -0.9267337142454994, 0.3403510282500996, -0.0022527145397786604, -0.07886900758440958, -0.36147850193926356, 0.4538929320172856]], "Bias": 0.17328195868167343}