{"Weights": [[0.41113550836670587, 0.49247810201231174, -0.40678732092351727, -0.35357379190449767, -0.03676260861953884, -0.025885097827165474, -0.6662299249314455, 0.16506727458011491, 0.12104373375506758, -0.005071318670538524, 0.0117945822629619, -0.48215287358099507, -0.24966078245234638, 0.29509292308086166, -0.08886929182629986, -0.03593123808065189, -0.04054851086307325, -0.14903348955090387, 0.16688391998379215, -0.5329332141488807, 0.14425957153793387, 0.3087292876527001, -0.7624557987914711], [0.10142973920214832, -0.3253870615820026, -0.09572295407515606, -0.4116523987269837, 0.6193286698776796, -0.17443568045168573, 0.418879382293852, -0.34552935463305856, -0.4632785520038401, 0.26106497099753845, -0.2041253390521339, -0.1017135462772405, 0.248322449564774, 0.009668424335732596, -0.2859273088692976, -0.3177173738808418, 0.02039378301360266, 0.1097482805403436, 0.17676981036510978, -0.31224117770295967, -0.4226989032380943, 0.32858993124725716, 0.3063899166862071]], "Bias": 0.1010720324544447}