{"Weights": [[0.1649592251396127, -0.24479259366688927, 0.09594044843963236, -0.03383816240670128, -0.1106046145450689, -0.22772188309368038, 0.12492136621677428, 0.04310865840341267, 0.138975990515923, -0.17303522454590808, -0.13418083480033477, 0.15012995133251283, 0.22990691242345584, 0.265790969723039, -0.19542676765252914, -0.1665926304814053, -0.22660041771291095, -0.10782732074227652, 0.15859831315340295, 0.004105981465485216, 0.1047756039484654, 0.06897132651819658, -0.10519403578272647, 0.14337772511503458, -0.21814681990097387, -0.016652422590323467, 0.18573777503452552, -0.013458989398252984, 0.19625043679923992, 0.2364991312641285, -0.0877183599041089, -0.18419222851836742, 0.09089106064275235, -0.038953396711378985, 0.30328966380427475, 0.1105431238767191, 0.10785796706388552, -0.1940022513105649, 0.10130483066152966, 0.12934122686636237], [-0.21949834130538695, -0.1428615438207785, 0.33099976287974486, 0.11874571712583815, 0.17808142516000322, -0.3074408267643838, -0.101338923594422, 0.046468593006985706, 0.136759445398917, 0.08673947172859015, -0.09920904499579704, -0.09795214897368595, 0.24885956068485637, -0.12978952002176872, -0.0001896967362909703, 0.09204444997473525, -0.17914130483771587, 0.23899151437536692, -0.1897257149501553, 0.021742263134827803, -0.012318173001993409, 0.3365054466971623, -0.15332875723157846, 0.2612226634570596, -0.05978387762009659, -0.060396183659007514, -0.07938149400898788, 0.099046579049929, -0.12291521041925538, -0.0377588566531078, 0.2153353756856048, 0.24341145303030373, -0.29612822720703136, 0.08923060729469587, 0.3034567823123603, -0.13126811639849306, 0.2552061992573819, 0.15242208388876644, -0.0073973903134482, -0.25387603069751324], [0.11935682548587712, 0.15201955612942245, -0.33448601397731337, -0.2909808207309655, 0.11723859456669812, 0.22856128479989102, -0.3391696911085621, -0.03927649430296424, -0.1980278599208521, -0.14653826617020493, 0.15452714167544354, 0.22457671837134063, -0.12423927665375101, 0.037230075276845236, -0.08371410356543471, -0.1131904959963729, 0.16047829200947816, 0.2695506698199276, 0.07519065529791177, -0.048514226835837435, 0.24711283400103254, 0.14682797183872498, 0.27892218463228574, 0.04888434408504041, 0.2313710548208649, 0.14855769777392966, 0.029059970073828236, -0.11588004043295026, 0.18113849158702855, -0.14103755348318253, 0.24379640071437034, -0.12869046797506334, -0.043245060084375245, -0.2434329719108849, 0.2691541229278744, -0.2822148056551366, -0.19367473947717243, 0.08238659890740398, -0.0058858022340667416, 0.11790325564179067], [-0.087401608370299, -0.019831509806092752, 0.1408612694913645, 0.05663901335507971, 0.12025611334422134, -0.28165608333384523, -0.26625201303488005, 0.253591343076947, 0.23313713647829504, -0.10958583708443845, -0.07296219265527737, -0.1588723887320212, 0.18437154827213703, -0.32353079397663115, -0.15445028762351087, 0.22797516611133833, -0.2369813834028753, 0.2186611857496247, 0.26751531908745635, -0.14397464365610432, -0.011357749022851743, 0.2717086393020624, 0.009099677071559615, -0.19949344679295294, -0.24149538421054637, 0.19531791771607068, -0.07826441349353634, 0.2536273544564118, -0.10269527630851295, -0.2180294091841757, 0.1681686507831487, 0.047490377197162564, -0.28522847049896793, -0.07249309791100471, 0.11639164554108104, 0.28757367844280113, -0.24726669365191148, -0.07368401651950725, -0.11461281131566356, -0.08594529575129847], [-0.30384236331888587, -0.18469757139104284, -0.24356066996399997, 0.12039373236504172, -0.06071118897943521, -0.25459977392909533, -0.13772028520951365, 0.07550971402223805, 0.252517808784395, -0.17509511879509923, -0.18820933361624254, -0.15178298325341022, 0.1089757077000774, -0.25841299576655447, 0.2523155804566612, -0.07951383793854049, 0.04815415560703171, 0.138372538511548, -0.12852507052812198, -0.20225772066706854, 0.14526217690327942, 0.28097697696617524, -0.1270297436461098, -0.11994719337510834, -0.17471272746795094, 0.06751704176789775, -0.1621833794446431, 0.2512464812731133, 0.16501995095448002, -0.1380368151594187, -0.1756877738983351, -0.08237417875892356, 0.27065083503010007, 0.26380412083403926, -0.2192003644763037, 0.01261872901287677, 0.10799735318232573, 0.06315280264716193, -0.10453254381724342, 0.18830004740278625], [-0.09983985768841311, 0.1919294360168754, 0.2627561066975598, 0.24058149519289102, 0.03787100643924118, -0.06607489227333936, 0.2933701447970702, -0.34298193152260614, -0.23256418152061284, -0.2661412664865507, 0.15441595581989437, 0.13803660826142372, -0.11734937992635154, -0.19034189470665439, -0.28898212433467974, -0.1079106933092916, 0.2010828123615691, 0.20735146054217302, 0.25297535265159005, -0.0869514500154183, -0.0210686717170992, 0.04827771863666107, -0.04096685784742049, 0.19950052505705593, -0.11363841772140991, -0.15050259751049705, -0.1275144665586215, 0.27053664761412743, 0.23287298300187986, 0.22173086088023475, 0.06638172607585759, 0.043079503715367666, -0.22676752079043103, 0.03757021947567571, -0.013950160660535324, 0.1844044949582109, 0.2827250216393775, 0.04772478543305767, 0.2943173294891618, 0.1844643461530155], [-0.2805770097405637, -0.08945400751777205, -0.025271201704801842, 0.206117539772317, -0.20057577862498585, 0.2285720288766363, -0.2820452487672979, 0.30736188576489387, -0.15365022286786423, 0.24435429873131181, -0.2696844246543571, 0.1408690745097671, -0.1495208254385358, 0.038917769286420656, 0.019535046099310862, 0.13799940495471713, 0.2185787169442663, -0.033776934686363266, -0.2153637515889717, -0.27904828926034564, 0.2859561588275178, 0.19564438624685448, 0.2834620536626286, -0.21840014633253169, -0.17526755310418576, 0.14939711948899753, 0.11787504206827275, 0.21732016488645814, -0.19923396426659337, -0.3003842166227297, 0.3000659932846354, 0.14466893961375157, 0.060788668034531146, -0.24749263839529886, -0.2725439622823682, -0.3023739725160391, -0.060170025557679335, 0.10863962583789251, 0.117249643637077, 0.0876468122725855], [0.13273729098375517, 0.13446096235923727, 0.013276516108078881, 0.01481197669916621, 0.21141283773406946, -0.23664754871407828, -0.046847870637140326, -0.21609605130354836, 0.094155154828466, -0.09284070006755608, 0.08160573856298575, -0.024499550884001138, 0.11860099838411661, 0.18951060139982773, -0.14947227321861523, -0.07188967663056003, -0.07949365386273491, -0.2743178754134872, -0.2322588664051472, 0.10429986726132807, -0.16437597267417928, -0.16312734372239282, -0.23279836221463152, -0.04118994477118965, 0.0007762782681476459, 0.04920544812337723, -0.011749948505990343, -0.05427208335221801, -0.05347181429526385, 0.2610574609190659, 0.17560708147975332, 0.14574094673123147, -0.09680080269655172, 0.15438036179042217, -0.1328102335843716, 0.1470194014966419, -0.2661641917159095, 0.013105382611598217, 0.2986317616813334, 0.1380929358424991], [-0.08672387000570658, -0.22122069283871115, -0.2913371997623125, -0.037439430244638715, -0.2170015013537879, -0.15741119549632665, 0.1298478976360284, -0.24616699539532125, 0.0807565125796654, 0.2948803475859993, -0.21853294541619173, 0.21054746657800527, 0.21528696355044252, -0.05463743944530787, -0.19796479994040692, -0.0944484155180038, -0.13306682900238448, 0.11896728595948275, -0.010975688628400166, -0.04669332758591149, 0.0621060252918032, -0.22216424037236462, -0.21648937347863795, -0.047981579799778705, 0.2648325429440713, -0.2306415271615537, -0.027768264818375965, -0.18228555619523232, -0.11925791797043538, -0.0317792624636224, -0.04098320206614415, 0.018292285649799057, -0.03500765261511023, -0.09046049305267671, 0.09458274480387098, 0.09850511986442125, -0.04742665334492589, 0.26028507612546953, -0.14489222085067271, -0.17494679081438075], [0.19083699010852984, 0.004719068658074438, -0.08158536425738287, -0.1280782734384601, 0.24494194102476297, 0.13734943220800805, 0.27608859072960795, 0.09854955139796062, 0.30239440896598346, 0.2849606488019786, 0.07631226764445727, 0.03731936127398974, -0.26750157588008067, 0.16760718185694995, -0.20264805897522808, 0.13103970701239032, 0.14198365937098126, 0.11064810586632397, -0.22131773850106098, 0.3960568424133465, 0.10342943299909413, -0.26226869615622184, -0.01830559747276459, 0.2732298015808851, 0.2785917249246061, -0.1768908749282031, -0.14569894788705287, -0.1828355615562956, -0.2440619826537386, -0.30908174685065204, -0.2718186222268171, -0.20766085904981463, -0.26343825620136657, -0.08363996206732097, -0.21697598619633923, -0.25308291280571144, 0.0031277224992820245, 0.12555950774309985, 0.27367257503438264, -0.2333472614820041]], "Bias": 0.07085717911858096}